<GAP_2022_5_28_120_3_13_35_983>
<Potential label="GAP_2022_5_28_120_3_13_35_983" init_args="IP GAP label=GAP_2022_5_28_120_3_13_35_983"/>
<GAP_params label="GAP_2022_5_28_120_3_13_35_983" gap_version="1645177290">
  <GAP_data do_core="F">
    <e0 Z="1" value=".00000000000000000E+000"/>
    <e0 Z="2" value=".00000000000000000E+000"/>
    <e0 Z="3" value=".00000000000000000E+000"/>
    <e0 Z="4" value=".00000000000000000E+000"/>
    <e0 Z="5" value=".00000000000000000E+000"/>
    <e0 Z="6" value=".00000000000000000E+000"/>
    <e0 Z="7" value=".00000000000000000E+000"/>
    <e0 Z="8" value=".00000000000000000E+000"/>
    <e0 Z="9" value=".00000000000000000E+000"/>
    <e0 Z="10" value=".00000000000000000E+000"/>
    <e0 Z="11" value=".00000000000000000E+000"/>
    <e0 Z="12" value=".00000000000000000E+000"/>
    <e0 Z="13" value=".00000000000000000E+000"/>
    <e0 Z="14" value=".00000000000000000E+000"/>
    <e0 Z="15" value=".00000000000000000E+000"/>
    <e0 Z="16" value=".00000000000000000E+000"/>
    <e0 Z="17" value=".00000000000000000E+000"/>
    <e0 Z="18" value=".00000000000000000E+000"/>
    <e0 Z="19" value=".00000000000000000E+000"/>
    <e0 Z="20" value=".00000000000000000E+000"/>
    <e0 Z="21" value=".00000000000000000E+000"/>
    <e0 Z="22" value=".00000000000000000E+000"/>
    <e0 Z="23" value=".00000000000000000E+000"/>
    <e0 Z="24" value=".00000000000000000E+000"/>
    <e0 Z="25" value=".00000000000000000E+000"/>
    <e0 Z="26" value="-3455.6995339000000"/>
    <e0 Z="27" value=".00000000000000000E+000"/>
    <e0 Z="28" value=".00000000000000000E+000"/>
    <e0 Z="29" value=".00000000000000000E+000"/>
    <e0 Z="30" value=".00000000000000000E+000"/>
    <e0 Z="31" value=".00000000000000000E+000"/>
    <e0 Z="32" value=".00000000000000000E+000"/>
    <e0 Z="33" value=".00000000000000000E+000"/>
    <e0 Z="34" value=".00000000000000000E+000"/>
    <e0 Z="35" value=".00000000000000000E+000"/>
    <e0 Z="36" value=".00000000000000000E+000"/>
    <e0 Z="37" value=".00000000000000000E+000"/>
    <e0 Z="38" value=".00000000000000000E+000"/>
    <e0 Z="39" value=".00000000000000000E+000"/>
    <e0 Z="40" value=".00000000000000000E+000"/>
    <e0 Z="41" value=".00000000000000000E+000"/>
    <e0 Z="42" value=".00000000000000000E+000"/>
    <e0 Z="43" value=".00000000000000000E+000"/>
    <e0 Z="44" value=".00000000000000000E+000"/>
    <e0 Z="45" value=".00000000000000000E+000"/>
    <e0 Z="46" value=".00000000000000000E+000"/>
    <e0 Z="47" value=".00000000000000000E+000"/>
    <e0 Z="48" value=".00000000000000000E+000"/>
    <e0 Z="49" value=".00000000000000000E+000"/>
    <e0 Z="50" value=".00000000000000000E+000"/>
    <e0 Z="51" value=".00000000000000000E+000"/>
    <e0 Z="52" value=".00000000000000000E+000"/>
    <e0 Z="53" value=".00000000000000000E+000"/>
    <e0 Z="54" value=".00000000000000000E+000"/>
    <e0 Z="55" value=".00000000000000000E+000"/>
    <e0 Z="56" value=".00000000000000000E+000"/>
    <e0 Z="57" value=".00000000000000000E+000"/>
    <e0 Z="58" value=".00000000000000000E+000"/>
    <e0 Z="59" value=".00000000000000000E+000"/>
    <e0 Z="60" value=".00000000000000000E+000"/>
    <e0 Z="61" value=".00000000000000000E+000"/>
    <e0 Z="62" value=".00000000000000000E+000"/>
    <e0 Z="63" value=".00000000000000000E+000"/>
    <e0 Z="64" value=".00000000000000000E+000"/>
    <e0 Z="65" value=".00000000000000000E+000"/>
    <e0 Z="66" value=".00000000000000000E+000"/>
    <e0 Z="67" value=".00000000000000000E+000"/>
    <e0 Z="68" value=".00000000000000000E+000"/>
    <e0 Z="69" value=".00000000000000000E+000"/>
    <e0 Z="70" value=".00000000000000000E+000"/>
    <e0 Z="71" value=".00000000000000000E+000"/>
    <e0 Z="72" value=".00000000000000000E+000"/>
    <e0 Z="73" value=".00000000000000000E+000"/>
    <e0 Z="74" value=".00000000000000000E+000"/>
    <e0 Z="75" value=".00000000000000000E+000"/>
    <e0 Z="76" value=".00000000000000000E+000"/>
    <e0 Z="77" value=".00000000000000000E+000"/>
    <e0 Z="78" value=".00000000000000000E+000"/>
    <e0 Z="79" value=".00000000000000000E+000"/>
    <e0 Z="80" value=".00000000000000000E+000"/>
    <e0 Z="81" value=".00000000000000000E+000"/>
    <e0 Z="82" value=".00000000000000000E+000"/>
    <e0 Z="83" value=".00000000000000000E+000"/>
    <e0 Z="84" value=".00000000000000000E+000"/>
    <e0 Z="85" value=".00000000000000000E+000"/>
    <e0 Z="86" value=".00000000000000000E+000"/>
    <e0 Z="87" value=".00000000000000000E+000"/>
    <e0 Z="88" value=".00000000000000000E+000"/>
    <e0 Z="89" value=".00000000000000000E+000"/>
    <e0 Z="90" value=".00000000000000000E+000"/>
    <e0 Z="91" value=".00000000000000000E+000"/>
    <e0 Z="92" value=".00000000000000000E+000"/>
    <e0 Z="93" value=".00000000000000000E+000"/>
    <e0 Z="94" value=".00000000000000000E+000"/>
    <e0 Z="95" value=".00000000000000000E+000"/>
    <e0 Z="96" value=".00000000000000000E+000"/>
    <e0 Z="97" value=".00000000000000000E+000"/>
    <e0 Z="98" value=".00000000000000000E+000"/>
    <e0 Z="99" value=".00000000000000000E+000"/>
    <e0 Z="100" value=".00000000000000000E+000"/>
    <e0 Z="101" value=".00000000000000000E+000"/>
    <e0 Z="102" value=".00000000000000000E+000"/>
    <e0 Z="103" value=".00000000000000000E+000"/>
    <e0 Z="104" value=".00000000000000000E+000"/>
    <e0 Z="105" value=".00000000000000000E+000"/>
    <e0 Z="106" value=".00000000000000000E+000"/>
    <e0 Z="107" value=".00000000000000000E+000"/>
    <e0 Z="108" value=".00000000000000000E+000"/>
    <e0 Z="109" value=".00000000000000000E+000"/>
    <e0 Z="110" value=".00000000000000000E+000"/>
    <e0 Z="111" value=".00000000000000000E+000"/>
    <e0 Z="112" value=".00000000000000000E+000"/>
    <e0 Z="113" value=".00000000000000000E+000"/>
    <e0 Z="114" value=".00000000000000000E+000"/>
    <e0 Z="115" value=".00000000000000000E+000"/>
    <e0 Z="116" value=".00000000000000000E+000"/>
    <e0 Z="117" value=".00000000000000000E+000"/>
    <e0 Z="118" value=".00000000000000000E+000"/>
  </GAP_data>
  <gpSparse label="GAP_2022_5_28_120_3_13_35_983" n_coordinate="3" fitted="T">
    <gpCoordinates label="GAP_2022_5_28_120_3_13_35_9831" dimensions="1" signal_variance="1.0000000000000000" signal_mean=".00000000000000000E+000" sparsified="T" n_permutations="2" covariance_type="1" n_sparseX="25" sparseX_filename="gap_Fe_test.xml.sparseX.GAP_2022_5_28_120_3_13_35_9831" sparseX_md5sum="7ef38a10e53be04beba155c206f98c17">
      <theta>  0.25000000000000000E+001 </theta>
      <descriptor> distance_Nb order=2 cutoff=5.0 n_sparse=25 covariance_type=ard_se delta=1.0 theta_uniform=2.5 sparse_method=uniform compact_clusters=True Z={26 26 }</descriptor>
      <permutation i="1">1  </permutation>
      <permutation i="2">1  </permutation>
      <sparseX i="1" alpha="414838.94820355618" sparseCutoff=".60589070852613081"/>
      <sparseX i="2" alpha="-206094.14909353986" sparseCutoff="1.0000000000000000"/>
      <sparseX i="3" alpha="1005491.1364488065" sparseCutoff=".53446494464095273E-001"/>
      <sparseX i="4" alpha="-95184.951762176293" sparseCutoff="1.0000000000000000"/>
      <sparseX i="5" alpha="-59594.159338393911" sparseCutoff="1.0000000000000000"/>
      <sparseX i="6" alpha="410894.49642704835" sparseCutoff="1.0000000000000000"/>
      <sparseX i="7" alpha="-121166.84920477826" sparseCutoff="1.0000000000000000"/>
      <sparseX i="8" alpha="326496.49768860074" sparseCutoff="1.0000000000000000"/>
      <sparseX i="9" alpha="163927.80466093685" sparseCutoff=".54391676900119590E-002"/>
      <sparseX i="10" alpha="-691393.22043145658" sparseCutoff=".84957732336093439"/>
      <sparseX i="11" alpha="301144.37009199947" sparseCutoff="1.0000000000000000"/>
      <sparseX i="12" alpha="87948.084310827777" sparseCutoff="1.0000000000000000"/>
      <sparseX i="13" alpha="-138313.05512566492" sparseCutoff="1.0000000000000000"/>
      <sparseX i="14" alpha="23102.562326878910" sparseCutoff="1.0000000000000000"/>
      <sparseX i="15" alpha="-136636.61289889074" sparseCutoff="1.0000000000000000"/>
      <sparseX i="16" alpha="120933.45424209685" sparseCutoff="1.0000000000000000"/>
      <sparseX i="17" alpha="-447955.67492328421" sparseCutoff="1.0000000000000000"/>
      <sparseX i="18" alpha="314909.35659561469" sparseCutoff="1.0000000000000000"/>
      <sparseX i="19" alpha="177423.45243946981" sparseCutoff="1.0000000000000000"/>
      <sparseX i="20" alpha="-379904.25541105284" sparseCutoff="1.0000000000000000"/>
      <sparseX i="21" alpha="125683.10564106141" sparseCutoff="1.0000000000000000"/>
      <sparseX i="22" alpha="144043.17752849087" sparseCutoff="1.0000000000000000"/>
      <sparseX i="23" alpha="-99331.509740031630" sparseCutoff="1.0000000000000000"/>
      <sparseX i="24" alpha="150913.69603336850" sparseCutoff="1.0000000000000000"/>
      <sparseX i="25" alpha="-217885.72311562937" sparseCutoff="1.0000000000000000"/>
    </gpCoordinates>
    <gpCoordinates label="GAP_2022_5_28_120_3_13_35_9832" dimensions="72" signal_variance="1.0000000000000000" signal_mean=".00000000000000000E+000" sparsified="T" n_permutations="1" covariance_type="2" zeta="4.0000000000000000" n_sparseX="2350" sparseX_filename="gap_Fe_test.xml.sparseX.GAP_2022_5_28_120_3_13_35_9832" sparseX_md5sum="d42e90d01e14996ef813f43d80f017b4">
      <descriptor>soap_turbo l_max=8 alpha_max={8} atom_sigma_r={0.25} atom_sigma_t={0.25} atom_sigma_r_scaling={ 0.0} atom_sigma_t_scaling={0.0} zeta=4 rcut_hard=3.0 rcut_soft=2.5 delta=1.0 basis=poly3 scaling_mode=polynomial amplitude_scaling={1.0} n_species=1 species_Z=26 add_species=F compress_mode=trivial radial_enhancement=1 central_weight={1.0} covariance_type=dot_product config_type_n_sparse=slice_sample_high:250:phonons_54_high:250:phonons_128_high:250:prim_random:100:default:1500 sparse_method=cur_points</descriptor>
      <permutation i="1">1  </permutation>
      <sparseX i="1" alpha="-3718324.6369488761" sparseCutoff="1.0000000000000000"/>
      <sparseX i="2" alpha="-6676370.1454554033" sparseCutoff="1.0000000000000000"/>
      <sparseX i="3" alpha="-1138123.6044610909" sparseCutoff="1.0000000000000000"/>
      <sparseX i="4" alpha="-4063019.3964787386" sparseCutoff="1.0000000000000000"/>
      <sparseX i="5" alpha="3295459.7439844348" sparseCutoff="1.0000000000000000"/>
      <sparseX i="6" alpha="-2348189.9690058976" sparseCutoff="1.0000000000000000"/>
      <sparseX i="7" alpha="-2326371.6645820290" sparseCutoff="1.0000000000000000"/>
      <sparseX i="8" alpha="-3649583.3241492165" sparseCutoff="1.0000000000000000"/>
      <sparseX i="9" alpha="104654.96725003778" sparseCutoff="1.0000000000000000"/>
      <sparseX i="10" alpha="324439.69387220411" sparseCutoff="1.0000000000000000"/>
      <sparseX i="11" alpha="-1314336.6528094213" sparseCutoff="1.0000000000000000"/>
      <sparseX i="12" alpha="3915850.4453054606" sparseCutoff="1.0000000000000000"/>
      <sparseX i="13" alpha="-14905201.582857285" sparseCutoff="1.0000000000000000"/>
      <sparseX i="14" alpha="-531721.94220251485" sparseCutoff="1.0000000000000000"/>
      <sparseX i="15" alpha="-6634862.4413461052" sparseCutoff="1.0000000000000000"/>
      <sparseX i="16" alpha="2280189.7954642945" sparseCutoff="1.0000000000000000"/>
      <sparseX i="17" alpha="-2187404.4015864176" sparseCutoff="1.0000000000000000"/>
      <sparseX i="18" alpha="-5421432.5663019856" sparseCutoff="1.0000000000000000"/>
      <sparseX i="19" alpha="815367.81155986397" sparseCutoff="1.0000000000000000"/>
      <sparseX i="20" alpha="2034291.3121322563" sparseCutoff="1.0000000000000000"/>
      <sparseX i="21" alpha="-3217393.3320183214" sparseCutoff="1.0000000000000000"/>
      <sparseX i="22" alpha="-3533897.9790614862" sparseCutoff="1.0000000000000000"/>
      <sparseX i="23" alpha="1314701.6153915324" sparseCutoff="1.0000000000000000"/>
      <sparseX i="24" alpha="3429375.3137393040" sparseCutoff="1.0000000000000000"/>
      <sparseX i="25" alpha="686220.78145821881" sparseCutoff="1.0000000000000000"/>
      <sparseX i="26" alpha="4433569.3733388213" sparseCutoff="1.0000000000000000"/>
      <sparseX i="27" alpha="-7477719.6182802832" sparseCutoff="1.0000000000000000"/>
      <sparseX i="28" alpha="3523089.5452529592" sparseCutoff="1.0000000000000000"/>
      <sparseX i="29" alpha="-2741167.9104806767" sparseCutoff="1.0000000000000000"/>
      <sparseX i="30" alpha="-4229386.3549123732" sparseCutoff="1.0000000000000000"/>
      <sparseX i="31" alpha="-484866.10547064623" sparseCutoff="1.0000000000000000"/>
      <sparseX i="32" alpha="1077195.9763927462" sparseCutoff="1.0000000000000000"/>
      <sparseX i="33" alpha="-1918229.3568151663" sparseCutoff="1.0000000000000000"/>
      <sparseX i="34" alpha="-5826942.1452049399" sparseCutoff="1.0000000000000000"/>
      <sparseX i="35" alpha="4657294.0355505515" sparseCutoff="1.0000000000000000"/>
      <sparseX i="36" alpha="2306331.1612184285" sparseCutoff="1.0000000000000000"/>
      <sparseX i="37" alpha="-1145124.3003904507" sparseCutoff="1.0000000000000000"/>
      <sparseX i="38" alpha="-1454652.2902547624" sparseCutoff="1.0000000000000000"/>
      <sparseX i="39" alpha="-845520.90278847702" sparseCutoff="1.0000000000000000"/>
      <sparseX i="40" alpha="9668935.0001203604" sparseCutoff="1.0000000000000000"/>
      <sparseX i="41" alpha="-410978.30533079809" sparseCutoff="1.0000000000000000"/>
      <sparseX i="42" alpha="-10721461.916581895" sparseCutoff="1.0000000000000000"/>
      <sparseX i="43" alpha="-429963.22867191734" sparseCutoff="1.0000000000000000"/>
      <sparseX i="44" alpha="-185462.50850894238" sparseCutoff="1.0000000000000000"/>
      <sparseX i="45" alpha="-1330827.6136954599" sparseCutoff="1.0000000000000000"/>
      <sparseX i="46" alpha="3495301.7805333217" sparseCutoff="1.0000000000000000"/>
      <sparseX i="47" alpha="-3340724.8865611563" sparseCutoff="1.0000000000000000"/>
      <sparseX i="48" alpha="1673984.0415203939" sparseCutoff="1.0000000000000000"/>
      <sparseX i="49" alpha="-1871915.4777745812" sparseCutoff="1.0000000000000000"/>
      <sparseX i="50" alpha="-2507717.9982781145" sparseCutoff="1.0000000000000000"/>
      <sparseX i="51" alpha="301579.68749952543" sparseCutoff="1.0000000000000000"/>
      <sparseX i="52" alpha="-3366309.0932224682" sparseCutoff="1.0000000000000000"/>
      <sparseX i="53" alpha="4199095.9262060262" sparseCutoff="1.0000000000000000"/>
      <sparseX i="54" alpha="9027735.1167447250" sparseCutoff="1.0000000000000000"/>
      <sparseX i="55" alpha="2233759.1274150941" sparseCutoff="1.0000000000000000"/>
      <sparseX i="56" alpha="2321951.9126632018" sparseCutoff="1.0000000000000000"/>
      <sparseX i="57" alpha="-5537333.3500250177" sparseCutoff="1.0000000000000000"/>
      <sparseX i="58" alpha="-1130374.0888848680" sparseCutoff="1.0000000000000000"/>
      <sparseX i="59" alpha="-1073324.0376484592" sparseCutoff="1.0000000000000000"/>
      <sparseX i="60" alpha="-4689031.4571631262" sparseCutoff="1.0000000000000000"/>
      <sparseX i="61" alpha="747732.65766355500" sparseCutoff="1.0000000000000000"/>
      <sparseX i="62" alpha="-772109.65466502344" sparseCutoff="1.0000000000000000"/>
      <sparseX i="63" alpha="-250570.29261109931" sparseCutoff="1.0000000000000000"/>
      <sparseX i="64" alpha="-2381746.6375473943" sparseCutoff="1.0000000000000000"/>
      <sparseX i="65" alpha="-3342090.0412118961" sparseCutoff="1.0000000000000000"/>
      <sparseX i="66" alpha="-213931.75529045999" sparseCutoff="1.0000000000000000"/>
      <sparseX i="67" alpha="-1444054.7663759636" sparseCutoff="1.0000000000000000"/>
      <sparseX i="68" alpha="-2962078.0165008274" sparseCutoff="1.0000000000000000"/>
      <sparseX i="69" alpha="1805068.9902270841" sparseCutoff="1.0000000000000000"/>
      <sparseX i="70" alpha="2317857.3553860392" sparseCutoff="1.0000000000000000"/>
      <sparseX i="71" alpha="-407159.17631511076" sparseCutoff="1.0000000000000000"/>
      <sparseX i="72" alpha="-231716.74678675536" sparseCutoff="1.0000000000000000"/>
      <sparseX i="73" alpha="-571401.79814709653" sparseCutoff="1.0000000000000000"/>
      <sparseX i="74" alpha="-157347.88824927047" sparseCutoff="1.0000000000000000"/>
      <sparseX i="75" alpha="-1199518.8974058751" sparseCutoff="1.0000000000000000"/>
      <sparseX i="76" alpha="-5483798.3199288668" sparseCutoff="1.0000000000000000"/>
      <sparseX i="77" alpha="4701250.1413160432" sparseCutoff="1.0000000000000000"/>
      <sparseX i="78" alpha="-5883784.7370125279" sparseCutoff="1.0000000000000000"/>
      <sparseX i="79" alpha="3922862.1786493105" sparseCutoff="1.0000000000000000"/>
      <sparseX i="80" alpha="-62459.603141143059" sparseCutoff="1.0000000000000000"/>
      <sparseX i="81" alpha="3629924.4428362651" sparseCutoff="1.0000000000000000"/>
      <sparseX i="82" alpha="-332767.52097133489" sparseCutoff="1.0000000000000000"/>
      <sparseX i="83" alpha="-6916016.1114734644" sparseCutoff="1.0000000000000000"/>
      <sparseX i="84" alpha="2556197.3150108722" sparseCutoff="1.0000000000000000"/>
      <sparseX i="85" alpha="-3018912.5169337192" sparseCutoff="1.0000000000000000"/>
      <sparseX i="86" alpha="3444548.4491325831" sparseCutoff="1.0000000000000000"/>
      <sparseX i="87" alpha="3699423.1281589931" sparseCutoff="1.0000000000000000"/>
      <sparseX i="88" alpha="-1179622.8407411086" sparseCutoff="1.0000000000000000"/>
      <sparseX i="89" alpha="-5357820.7163115693" sparseCutoff="1.0000000000000000"/>
      <sparseX i="90" alpha="-603709.17390939046" sparseCutoff="1.0000000000000000"/>
      <sparseX i="91" alpha="3615397.6489902111" sparseCutoff="1.0000000000000000"/>
      <sparseX i="92" alpha="3412306.7682733308" sparseCutoff="1.0000000000000000"/>
      <sparseX i="93" alpha="5695555.4672787832" sparseCutoff="1.0000000000000000"/>
      <sparseX i="94" alpha="611181.74037088093" sparseCutoff="1.0000000000000000"/>
      <sparseX i="95" alpha="2738587.9658872942" sparseCutoff="1.0000000000000000"/>
      <sparseX i="96" alpha="785564.24430632521" sparseCutoff="1.0000000000000000"/>
      <sparseX i="97" alpha="2610422.2159648300" sparseCutoff="1.0000000000000000"/>
      <sparseX i="98" alpha="-8133721.6848862059" sparseCutoff="1.0000000000000000"/>
      <sparseX i="99" alpha="-1872737.3547131638" sparseCutoff="1.0000000000000000"/>
      <sparseX i="100" alpha="8573285.2605375387" sparseCutoff="1.0000000000000000"/>
      <sparseX i="101" alpha="-7307553.0529454704" sparseCutoff="1.0000000000000000"/>
      <sparseX i="102" alpha="-6263892.4913949063" sparseCutoff="1.0000000000000000"/>
      <sparseX i="103" alpha="2233999.9543637899" sparseCutoff="1.0000000000000000"/>
      <sparseX i="104" alpha="-2661713.6348569607" sparseCutoff="1.0000000000000000"/>
      <sparseX i="105" alpha="-876008.14813355135" sparseCutoff="1.0000000000000000"/>
      <sparseX i="106" alpha="-7252270.5688718725" sparseCutoff="1.0000000000000000"/>
      <sparseX i="107" alpha="13696345.973753804" sparseCutoff="1.0000000000000000"/>
      <sparseX i="108" alpha="701634.86607776827" sparseCutoff="1.0000000000000000"/>
      <sparseX i="109" alpha="8826771.3653513715" sparseCutoff="1.0000000000000000"/>
      <sparseX i="110" alpha="7154002.3110630373" sparseCutoff="1.0000000000000000"/>
      <sparseX i="111" alpha="-9110772.7790291514" sparseCutoff="1.0000000000000000"/>
      <sparseX i="112" alpha="-16852924.860541329" sparseCutoff="1.0000000000000000"/>
      <sparseX i="113" alpha="492305.29612250201" sparseCutoff="1.0000000000000000"/>
      <sparseX i="114" alpha="2465123.6965055838" sparseCutoff="1.0000000000000000"/>
      <sparseX i="115" alpha="-5274453.9557870766" sparseCutoff="1.0000000000000000"/>
      <sparseX i="116" alpha="-388755.62872229837" sparseCutoff="1.0000000000000000"/>
      <sparseX i="117" alpha="-2907029.9185247137" sparseCutoff="1.0000000000000000"/>
      <sparseX i="118" alpha="-6321888.5326990495" sparseCutoff="1.0000000000000000"/>
      <sparseX i="119" alpha="2207233.8812964805" sparseCutoff="1.0000000000000000"/>
      <sparseX i="120" alpha="911747.06345179037" sparseCutoff="1.0000000000000000"/>
      <sparseX i="121" alpha="1734151.7265247842" sparseCutoff="1.0000000000000000"/>
      <sparseX i="122" alpha="-1900795.6707281659" sparseCutoff="1.0000000000000000"/>
      <sparseX i="123" alpha="78826.416378448994" sparseCutoff="1.0000000000000000"/>
      <sparseX i="124" alpha="-84032.227983021789" sparseCutoff="1.0000000000000000"/>
      <sparseX i="125" alpha="-2926528.0272082645" sparseCutoff="1.0000000000000000"/>
      <sparseX i="126" alpha="-2361015.7686281721" sparseCutoff="1.0000000000000000"/>
      <sparseX i="127" alpha="-2579166.0033236286" sparseCutoff="1.0000000000000000"/>
      <sparseX i="128" alpha="4656380.6194106443" sparseCutoff="1.0000000000000000"/>
      <sparseX i="129" alpha="-694286.27478061710" sparseCutoff="1.0000000000000000"/>
      <sparseX i="130" alpha="1846906.1293174713" sparseCutoff="1.0000000000000000"/>
      <sparseX i="131" alpha="-1130159.8943424153" sparseCutoff="1.0000000000000000"/>
      <sparseX i="132" alpha="-768315.04049422452" sparseCutoff="1.0000000000000000"/>
      <sparseX i="133" alpha="-998107.36142811168" sparseCutoff="1.0000000000000000"/>
      <sparseX i="134" alpha="-1070753.3510975256" sparseCutoff="1.0000000000000000"/>
      <sparseX i="135" alpha="-972912.65105937829" sparseCutoff="1.0000000000000000"/>
      <sparseX i="136" alpha="1677174.2837529958" sparseCutoff="1.0000000000000000"/>
      <sparseX i="137" alpha="4101521.7087260406" sparseCutoff="1.0000000000000000"/>
      <sparseX i="138" alpha="528336.75551157678" sparseCutoff="1.0000000000000000"/>
      <sparseX i="139" alpha="2621604.8238886371" sparseCutoff="1.0000000000000000"/>
      <sparseX i="140" alpha="849523.10349439899" sparseCutoff="1.0000000000000000"/>
      <sparseX i="141" alpha="7666466.4890965829" sparseCutoff="1.0000000000000000"/>
      <sparseX i="142" alpha="6702788.7949219225" sparseCutoff="1.0000000000000000"/>
      <sparseX i="143" alpha="-1181451.0925110232" sparseCutoff="1.0000000000000000"/>
      <sparseX i="144" alpha="585134.78862577572" sparseCutoff="1.0000000000000000"/>
      <sparseX i="145" alpha="758118.58818235376" sparseCutoff="1.0000000000000000"/>
      <sparseX i="146" alpha="-635441.79666866490" sparseCutoff="1.0000000000000000"/>
      <sparseX i="147" alpha="-1358929.3496408125" sparseCutoff="1.0000000000000000"/>
      <sparseX i="148" alpha="-8337233.5043592788" sparseCutoff="1.0000000000000000"/>
      <sparseX i="149" alpha="1007766.5328551593" sparseCutoff="1.0000000000000000"/>
      <sparseX i="150" alpha="5412814.6246002270" sparseCutoff="1.0000000000000000"/>
      <sparseX i="151" alpha="3858718.7261069538" sparseCutoff="1.0000000000000000"/>
      <sparseX i="152" alpha="4457218.5241586426" sparseCutoff="1.0000000000000000"/>
      <sparseX i="153" alpha="-3834028.7563009243" sparseCutoff="1.0000000000000000"/>
      <sparseX i="154" alpha="-475326.20382696000" sparseCutoff="1.0000000000000000"/>
      <sparseX i="155" alpha="4146684.8037294955" sparseCutoff="1.0000000000000000"/>
      <sparseX i="156" alpha="732285.29512903932" sparseCutoff="1.0000000000000000"/>
      <sparseX i="157" alpha="-250634.72124882511" sparseCutoff="1.0000000000000000"/>
      <sparseX i="158" alpha="-65050.722542967756" sparseCutoff="1.0000000000000000"/>
      <sparseX i="159" alpha="815435.09525488596" sparseCutoff="1.0000000000000000"/>
      <sparseX i="160" alpha="-2769977.7545882957" sparseCutoff="1.0000000000000000"/>
      <sparseX i="161" alpha="-551834.24334533920" sparseCutoff="1.0000000000000000"/>
      <sparseX i="162" alpha="-5218513.3075240012" sparseCutoff="1.0000000000000000"/>
      <sparseX i="163" alpha="-206123.42372233083" sparseCutoff="1.0000000000000000"/>
      <sparseX i="164" alpha="1446824.1880856655" sparseCutoff="1.0000000000000000"/>
      <sparseX i="165" alpha="3626054.2391195670" sparseCutoff="1.0000000000000000"/>
      <sparseX i="166" alpha="-6764836.7915520305" sparseCutoff="1.0000000000000000"/>
      <sparseX i="167" alpha="830974.33337919111" sparseCutoff="1.0000000000000000"/>
      <sparseX i="168" alpha="-798615.01653042436" sparseCutoff="1.0000000000000000"/>
      <sparseX i="169" alpha="-839744.98247159366" sparseCutoff="1.0000000000000000"/>
      <sparseX i="170" alpha="-1931488.5933854603" sparseCutoff="1.0000000000000000"/>
      <sparseX i="171" alpha="-3839868.8904917263" sparseCutoff="1.0000000000000000"/>
      <sparseX i="172" alpha="1737154.8678050099" sparseCutoff="1.0000000000000000"/>
      <sparseX i="173" alpha="1419113.4274579112" sparseCutoff="1.0000000000000000"/>
      <sparseX i="174" alpha="-8074617.6316427449" sparseCutoff="1.0000000000000000"/>
      <sparseX i="175" alpha="6347984.9469778882" sparseCutoff="1.0000000000000000"/>
      <sparseX i="176" alpha="10907208.639804177" sparseCutoff="1.0000000000000000"/>
      <sparseX i="177" alpha="5340357.8493129862" sparseCutoff="1.0000000000000000"/>
      <sparseX i="178" alpha="-1592275.6943259039" sparseCutoff="1.0000000000000000"/>
      <sparseX i="179" alpha="1881775.6310377794" sparseCutoff="1.0000000000000000"/>
      <sparseX i="180" alpha="-967730.92672070942" sparseCutoff="1.0000000000000000"/>
      <sparseX i="181" alpha="-3604676.7295594583" sparseCutoff="1.0000000000000000"/>
      <sparseX i="182" alpha="-2321415.6499873372" sparseCutoff="1.0000000000000000"/>
      <sparseX i="183" alpha="-93044.294075247861" sparseCutoff="1.0000000000000000"/>
      <sparseX i="184" alpha="10635417.679150039" sparseCutoff="1.0000000000000000"/>
      <sparseX i="185" alpha="-2022560.9355093762" sparseCutoff="1.0000000000000000"/>
      <sparseX i="186" alpha="1010398.5553403794" sparseCutoff="1.0000000000000000"/>
      <sparseX i="187" alpha="3065138.3794361162" sparseCutoff="1.0000000000000000"/>
      <sparseX i="188" alpha="-1296464.4369246669" sparseCutoff="1.0000000000000000"/>
      <sparseX i="189" alpha="-2255707.8129468421" sparseCutoff="1.0000000000000000"/>
      <sparseX i="190" alpha="-10420514.433966585" sparseCutoff="1.0000000000000000"/>
      <sparseX i="191" alpha="11004597.251426199" sparseCutoff="1.0000000000000000"/>
      <sparseX i="192" alpha="-367533.53029360820" sparseCutoff="1.0000000000000000"/>
      <sparseX i="193" alpha="7562667.4199272348" sparseCutoff="1.0000000000000000"/>
      <sparseX i="194" alpha="-3009352.9720237795" sparseCutoff="1.0000000000000000"/>
      <sparseX i="195" alpha="4592961.7552382089" sparseCutoff="1.0000000000000000"/>
      <sparseX i="196" alpha="9258699.2128503863" sparseCutoff="1.0000000000000000"/>
      <sparseX i="197" alpha="-16785697.714923382" sparseCutoff="1.0000000000000000"/>
      <sparseX i="198" alpha="9965737.6413919944" sparseCutoff="1.0000000000000000"/>
      <sparseX i="199" alpha="4537033.6168440515" sparseCutoff="1.0000000000000000"/>
      <sparseX i="200" alpha="-1957902.1328660524" sparseCutoff="1.0000000000000000"/>
      <sparseX i="201" alpha="-354622.75062104233" sparseCutoff="1.0000000000000000"/>
      <sparseX i="202" alpha="-1316387.6467937690" sparseCutoff="1.0000000000000000"/>
      <sparseX i="203" alpha="1158252.9429133320" sparseCutoff="1.0000000000000000"/>
      <sparseX i="204" alpha="-360598.79853474232" sparseCutoff="1.0000000000000000"/>
      <sparseX i="205" alpha="997269.27244243911" sparseCutoff="1.0000000000000000"/>
      <sparseX i="206" alpha="-935966.43719110277" sparseCutoff="1.0000000000000000"/>
      <sparseX i="207" alpha="774771.39863754215" sparseCutoff="1.0000000000000000"/>
      <sparseX i="208" alpha="4102561.8474838985" sparseCutoff="1.0000000000000000"/>
      <sparseX i="209" alpha="-1191245.1607844150" sparseCutoff="1.0000000000000000"/>
      <sparseX i="210" alpha="-1112698.4516036862" sparseCutoff="1.0000000000000000"/>
      <sparseX i="211" alpha="919828.81397581240" sparseCutoff="1.0000000000000000"/>
      <sparseX i="212" alpha="-946688.58973031747" sparseCutoff="1.0000000000000000"/>
      <sparseX i="213" alpha="3555231.2045962769" sparseCutoff="1.0000000000000000"/>
      <sparseX i="214" alpha="-865861.08887552447" sparseCutoff="1.0000000000000000"/>
      <sparseX i="215" alpha="-84297.510254206703" sparseCutoff="1.0000000000000000"/>
      <sparseX i="216" alpha="736472.98335592204" sparseCutoff="1.0000000000000000"/>
      <sparseX i="217" alpha="-1553098.3098297899" sparseCutoff="1.0000000000000000"/>
      <sparseX i="218" alpha="-4672239.2065829253" sparseCutoff="1.0000000000000000"/>
      <sparseX i="219" alpha="421930.60538613348" sparseCutoff="1.0000000000000000"/>
      <sparseX i="220" alpha="-3732436.0415422241" sparseCutoff="1.0000000000000000"/>
      <sparseX i="221" alpha="-844685.56960374175" sparseCutoff="1.0000000000000000"/>
      <sparseX i="222" alpha="-222206.49836594565" sparseCutoff="1.0000000000000000"/>
      <sparseX i="223" alpha="520851.87236150639" sparseCutoff="1.0000000000000000"/>
      <sparseX i="224" alpha="-529191.97156027541" sparseCutoff="1.0000000000000000"/>
      <sparseX i="225" alpha="9243.8866456948035" sparseCutoff="1.0000000000000000"/>
      <sparseX i="226" alpha="821874.18232904526" sparseCutoff="1.0000000000000000"/>
      <sparseX i="227" alpha="-39095.633721533675" sparseCutoff="1.0000000000000000"/>
      <sparseX i="228" alpha="4584584.4817942334" sparseCutoff="1.0000000000000000"/>
      <sparseX i="229" alpha="-2600661.7790048877" sparseCutoff="1.0000000000000000"/>
      <sparseX i="230" alpha="1071892.4135747815" sparseCutoff="1.0000000000000000"/>
      <sparseX i="231" alpha="-502699.86652434210" sparseCutoff="1.0000000000000000"/>
      <sparseX i="232" alpha="2552989.7949468456" sparseCutoff="1.0000000000000000"/>
      <sparseX i="233" alpha="-469261.69915727159" sparseCutoff="1.0000000000000000"/>
      <sparseX i="234" alpha="579775.43238349294" sparseCutoff="1.0000000000000000"/>
      <sparseX i="235" alpha="-2814648.3368375674" sparseCutoff="1.0000000000000000"/>
      <sparseX i="236" alpha="2736807.6723582908" sparseCutoff="1.0000000000000000"/>
      <sparseX i="237" alpha="-35895.206240984851" sparseCutoff="1.0000000000000000"/>
      <sparseX i="238" alpha="2147990.9735208652" sparseCutoff="1.0000000000000000"/>
      <sparseX i="239" alpha="-1764841.2919026914" sparseCutoff="1.0000000000000000"/>
      <sparseX i="240" alpha="-1110143.7451141346" sparseCutoff="1.0000000000000000"/>
      <sparseX i="241" alpha="1176387.1828821828" sparseCutoff="1.0000000000000000"/>
      <sparseX i="242" alpha="-473970.09848443064" sparseCutoff="1.0000000000000000"/>
      <sparseX i="243" alpha="1173833.3249327585" sparseCutoff="1.0000000000000000"/>
      <sparseX i="244" alpha="594765.67051467940" sparseCutoff="1.0000000000000000"/>
      <sparseX i="245" alpha="-790279.06254072674" sparseCutoff="1.0000000000000000"/>
      <sparseX i="246" alpha="-1014091.9530607588" sparseCutoff="1.0000000000000000"/>
      <sparseX i="247" alpha="1136377.0995836668" sparseCutoff="1.0000000000000000"/>
      <sparseX i="248" alpha="424587.68828246993" sparseCutoff="1.0000000000000000"/>
      <sparseX i="249" alpha="1617867.6502773114" sparseCutoff="1.0000000000000000"/>
      <sparseX i="250" alpha="896454.11528189352" sparseCutoff="1.0000000000000000"/>
      <sparseX i="251" alpha="145460.14520104133" sparseCutoff="1.0000000000000000"/>
      <sparseX i="252" alpha="975497.22645900038" sparseCutoff="1.0000000000000000"/>
      <sparseX i="253" alpha="619270.94390784367" sparseCutoff="1.0000000000000000"/>
      <sparseX i="254" alpha="-918521.20296815399" sparseCutoff="1.0000000000000000"/>
      <sparseX i="255" alpha="102176.69611576952" sparseCutoff="1.0000000000000000"/>
      <sparseX i="256" alpha="-749582.47651682526" sparseCutoff="1.0000000000000000"/>
      <sparseX i="257" alpha="2117222.5029766229" sparseCutoff="1.0000000000000000"/>
      <sparseX i="258" alpha="-762019.30380660517" sparseCutoff="1.0000000000000000"/>
      <sparseX i="259" alpha="1549203.6837279736" sparseCutoff="1.0000000000000000"/>
      <sparseX i="260" alpha="-1285622.4233853542" sparseCutoff="1.0000000000000000"/>
      <sparseX i="261" alpha="-1894305.7764862818" sparseCutoff="1.0000000000000000"/>
      <sparseX i="262" alpha="895633.64069120504" sparseCutoff="1.0000000000000000"/>
      <sparseX i="263" alpha="582296.17033785768" sparseCutoff="1.0000000000000000"/>
      <sparseX i="264" alpha="-110388.21798949210" sparseCutoff="1.0000000000000000"/>
      <sparseX i="265" alpha="-4076220.0515254405" sparseCutoff="1.0000000000000000"/>
      <sparseX i="266" alpha="1642330.5252939148" sparseCutoff="1.0000000000000000"/>
      <sparseX i="267" alpha="8287671.7314649466" sparseCutoff="1.0000000000000000"/>
      <sparseX i="268" alpha="797815.29307823861" sparseCutoff="1.0000000000000000"/>
      <sparseX i="269" alpha="1101919.1016205766" sparseCutoff="1.0000000000000000"/>
      <sparseX i="270" alpha="-1225004.4489420571" sparseCutoff="1.0000000000000000"/>
      <sparseX i="271" alpha="-1653052.7175595385" sparseCutoff="1.0000000000000000"/>
      <sparseX i="272" alpha="-654819.13491479808" sparseCutoff="1.0000000000000000"/>
      <sparseX i="273" alpha="3128388.9903879864" sparseCutoff="1.0000000000000000"/>
      <sparseX i="274" alpha="1334684.5599525927" sparseCutoff="1.0000000000000000"/>
      <sparseX i="275" alpha="250759.29484313558" sparseCutoff="1.0000000000000000"/>
      <sparseX i="276" alpha="523859.23251526325" sparseCutoff="1.0000000000000000"/>
      <sparseX i="277" alpha="1955962.2342989317" sparseCutoff="1.0000000000000000"/>
      <sparseX i="278" alpha="-3848960.7682254035" sparseCutoff="1.0000000000000000"/>
      <sparseX i="279" alpha="-2757515.2569052032" sparseCutoff="1.0000000000000000"/>
      <sparseX i="280" alpha="-200743.68699288188" sparseCutoff="1.0000000000000000"/>
      <sparseX i="281" alpha="-1399487.4517761646" sparseCutoff="1.0000000000000000"/>
      <sparseX i="282" alpha="-1895099.3364938600" sparseCutoff="1.0000000000000000"/>
      <sparseX i="283" alpha="-5300754.1681274697" sparseCutoff="1.0000000000000000"/>
      <sparseX i="284" alpha="-1065203.1733367641" sparseCutoff="1.0000000000000000"/>
      <sparseX i="285" alpha="1138753.4362150209" sparseCutoff="1.0000000000000000"/>
      <sparseX i="286" alpha="3248988.7590544433" sparseCutoff="1.0000000000000000"/>
      <sparseX i="287" alpha="4245439.7033109535" sparseCutoff="1.0000000000000000"/>
      <sparseX i="288" alpha="1721943.3377580780" sparseCutoff="1.0000000000000000"/>
      <sparseX i="289" alpha="-1193817.9869292688" sparseCutoff="1.0000000000000000"/>
      <sparseX i="290" alpha="923762.07948302629" sparseCutoff="1.0000000000000000"/>
      <sparseX i="291" alpha="15241.692653589342" sparseCutoff="1.0000000000000000"/>
      <sparseX i="292" alpha="-2102246.3816353045" sparseCutoff="1.0000000000000000"/>
      <sparseX i="293" alpha="-3823678.4033619189" sparseCutoff="1.0000000000000000"/>
      <sparseX i="294" alpha="-1760909.2287707133" sparseCutoff="1.0000000000000000"/>
      <sparseX i="295" alpha="5214664.1688013691" sparseCutoff="1.0000000000000000"/>
      <sparseX i="296" alpha="2524936.3533493988" sparseCutoff="1.0000000000000000"/>
      <sparseX i="297" alpha="-921374.59511547629" sparseCutoff="1.0000000000000000"/>
      <sparseX i="298" alpha="1593856.0852639528" sparseCutoff="1.0000000000000000"/>
      <sparseX i="299" alpha="-1932007.3768360498" sparseCutoff="1.0000000000000000"/>
      <sparseX i="300" alpha="-1627701.6194967837" sparseCutoff="1.0000000000000000"/>
      <sparseX i="301" alpha="441888.94797918783" sparseCutoff="1.0000000000000000"/>
      <sparseX i="302" alpha="854827.70225330384" sparseCutoff="1.0000000000000000"/>
      <sparseX i="303" alpha="388026.06703922368" sparseCutoff="1.0000000000000000"/>
      <sparseX i="304" alpha="2664969.5372650353" sparseCutoff="1.0000000000000000"/>
      <sparseX i="305" alpha="2586005.9650366404" sparseCutoff="1.0000000000000000"/>
      <sparseX i="306" alpha="-1911473.5285452970" sparseCutoff="1.0000000000000000"/>
      <sparseX i="307" alpha="-970338.51123106887" sparseCutoff="1.0000000000000000"/>
      <sparseX i="308" alpha="-666150.21433452750" sparseCutoff="1.0000000000000000"/>
      <sparseX i="309" alpha="1603879.9423851762" sparseCutoff="1.0000000000000000"/>
      <sparseX i="310" alpha="-2621341.1392178512" sparseCutoff="1.0000000000000000"/>
      <sparseX i="311" alpha="1608346.7625799880" sparseCutoff="1.0000000000000000"/>
      <sparseX i="312" alpha="-4156006.1415842860" sparseCutoff="1.0000000000000000"/>
      <sparseX i="313" alpha="2834688.2982775001" sparseCutoff="1.0000000000000000"/>
      <sparseX i="314" alpha="322217.45455867972" sparseCutoff="1.0000000000000000"/>
      <sparseX i="315" alpha="-87253.029801653174" sparseCutoff="1.0000000000000000"/>
      <sparseX i="316" alpha="-695312.35177986987" sparseCutoff="1.0000000000000000"/>
      <sparseX i="317" alpha="-2711272.5572674978" sparseCutoff="1.0000000000000000"/>
      <sparseX i="318" alpha="-439757.90492905799" sparseCutoff="1.0000000000000000"/>
      <sparseX i="319" alpha="-5476735.2336729774" sparseCutoff="1.0000000000000000"/>
      <sparseX i="320" alpha="213349.76116637370" sparseCutoff="1.0000000000000000"/>
      <sparseX i="321" alpha="-3926990.0494989189" sparseCutoff="1.0000000000000000"/>
      <sparseX i="322" alpha="-1671644.7580135548" sparseCutoff="1.0000000000000000"/>
      <sparseX i="323" alpha="694108.37487336644" sparseCutoff="1.0000000000000000"/>
      <sparseX i="324" alpha="-934819.17712858086" sparseCutoff="1.0000000000000000"/>
      <sparseX i="325" alpha="-540546.65625030780" sparseCutoff="1.0000000000000000"/>
      <sparseX i="326" alpha="1386425.8068789043" sparseCutoff="1.0000000000000000"/>
      <sparseX i="327" alpha="1680979.7620784384" sparseCutoff="1.0000000000000000"/>
      <sparseX i="328" alpha="-66004.610457575487" sparseCutoff="1.0000000000000000"/>
      <sparseX i="329" alpha="1792543.0309855468" sparseCutoff="1.0000000000000000"/>
      <sparseX i="330" alpha="824560.93656229647" sparseCutoff="1.0000000000000000"/>
      <sparseX i="331" alpha="-81823.920595730102" sparseCutoff="1.0000000000000000"/>
      <sparseX i="332" alpha="-1413552.7043823015" sparseCutoff="1.0000000000000000"/>
      <sparseX i="333" alpha="1405817.0361696621" sparseCutoff="1.0000000000000000"/>
      <sparseX i="334" alpha="231429.94779616006" sparseCutoff="1.0000000000000000"/>
      <sparseX i="335" alpha="1348923.9722247089" sparseCutoff="1.0000000000000000"/>
      <sparseX i="336" alpha="4310876.6242914684" sparseCutoff="1.0000000000000000"/>
      <sparseX i="337" alpha="458012.14968979626" sparseCutoff="1.0000000000000000"/>
      <sparseX i="338" alpha="-722183.46683006443" sparseCutoff="1.0000000000000000"/>
      <sparseX i="339" alpha="311205.43208531290" sparseCutoff="1.0000000000000000"/>
      <sparseX i="340" alpha="-567232.19071214681" sparseCutoff="1.0000000000000000"/>
      <sparseX i="341" alpha="6037093.2840338014" sparseCutoff="1.0000000000000000"/>
      <sparseX i="342" alpha="-4922531.6256900765" sparseCutoff="1.0000000000000000"/>
      <sparseX i="343" alpha="616724.62234268500" sparseCutoff="1.0000000000000000"/>
      <sparseX i="344" alpha="-1357834.5163353651" sparseCutoff="1.0000000000000000"/>
      <sparseX i="345" alpha="3089966.7899285788" sparseCutoff="1.0000000000000000"/>
      <sparseX i="346" alpha="-11224.337683994423" sparseCutoff="1.0000000000000000"/>
      <sparseX i="347" alpha="415062.81783518585" sparseCutoff="1.0000000000000000"/>
      <sparseX i="348" alpha="633635.81576208409" sparseCutoff="1.0000000000000000"/>
      <sparseX i="349" alpha="1103118.7107616076" sparseCutoff="1.0000000000000000"/>
      <sparseX i="350" alpha="-1826140.6770994794" sparseCutoff="1.0000000000000000"/>
      <sparseX i="351" alpha="400347.56266010203" sparseCutoff="1.0000000000000000"/>
      <sparseX i="352" alpha="2278205.0012645088" sparseCutoff="1.0000000000000000"/>
      <sparseX i="353" alpha="464448.65035690425" sparseCutoff="1.0000000000000000"/>
      <sparseX i="354" alpha="-2612171.9151442326" sparseCutoff="1.0000000000000000"/>
      <sparseX i="355" alpha="-1727337.9551420463" sparseCutoff="1.0000000000000000"/>
      <sparseX i="356" alpha="-553012.23562810745" sparseCutoff="1.0000000000000000"/>
      <sparseX i="357" alpha="-526943.68177083589" sparseCutoff="1.0000000000000000"/>
      <sparseX i="358" alpha="4043946.4945677095" sparseCutoff="1.0000000000000000"/>
      <sparseX i="359" alpha="-1311014.0983056133" sparseCutoff="1.0000000000000000"/>
      <sparseX i="360" alpha="2316864.1257997453" sparseCutoff="1.0000000000000000"/>
      <sparseX i="361" alpha="-1927555.4325508657" sparseCutoff="1.0000000000000000"/>
      <sparseX i="362" alpha="-808529.75344681367" sparseCutoff="1.0000000000000000"/>
      <sparseX i="363" alpha="4311546.0670389729" sparseCutoff="1.0000000000000000"/>
      <sparseX i="364" alpha="1571517.6173055423" sparseCutoff="1.0000000000000000"/>
      <sparseX i="365" alpha="4563372.3370293006" sparseCutoff="1.0000000000000000"/>
      <sparseX i="366" alpha="775799.89117421105" sparseCutoff="1.0000000000000000"/>
      <sparseX i="367" alpha="356387.97555919387" sparseCutoff="1.0000000000000000"/>
      <sparseX i="368" alpha="118517.44596786704" sparseCutoff="1.0000000000000000"/>
      <sparseX i="369" alpha="-385109.14243225422" sparseCutoff="1.0000000000000000"/>
      <sparseX i="370" alpha="-123342.15982242885" sparseCutoff="1.0000000000000000"/>
      <sparseX i="371" alpha="1829536.0293613481" sparseCutoff="1.0000000000000000"/>
      <sparseX i="372" alpha="-1685831.0569732820" sparseCutoff="1.0000000000000000"/>
      <sparseX i="373" alpha="-2007275.5995047931" sparseCutoff="1.0000000000000000"/>
      <sparseX i="374" alpha="313457.06458420842" sparseCutoff="1.0000000000000000"/>
      <sparseX i="375" alpha="346008.93405530357" sparseCutoff="1.0000000000000000"/>
      <sparseX i="376" alpha="-22735.919481117322" sparseCutoff="1.0000000000000000"/>
      <sparseX i="377" alpha="-3637012.7071295222" sparseCutoff="1.0000000000000000"/>
      <sparseX i="378" alpha="130096.31527609997" sparseCutoff="1.0000000000000000"/>
      <sparseX i="379" alpha="-2114451.8898956580" sparseCutoff="1.0000000000000000"/>
      <sparseX i="380" alpha="1925726.8060728780" sparseCutoff="1.0000000000000000"/>
      <sparseX i="381" alpha="-827538.72317133599" sparseCutoff="1.0000000000000000"/>
      <sparseX i="382" alpha="444284.70719595376" sparseCutoff="1.0000000000000000"/>
      <sparseX i="383" alpha="1655997.4686480376" sparseCutoff="1.0000000000000000"/>
      <sparseX i="384" alpha="276549.75876590831" sparseCutoff="1.0000000000000000"/>
      <sparseX i="385" alpha="97824.229942150327" sparseCutoff="1.0000000000000000"/>
      <sparseX i="386" alpha="-465042.91011903674" sparseCutoff="1.0000000000000000"/>
      <sparseX i="387" alpha="354304.60672475072" sparseCutoff="1.0000000000000000"/>
      <sparseX i="388" alpha="-1004448.7255552140" sparseCutoff="1.0000000000000000"/>
      <sparseX i="389" alpha="1372222.5577154597" sparseCutoff="1.0000000000000000"/>
      <sparseX i="390" alpha="3144498.3745490527" sparseCutoff="1.0000000000000000"/>
      <sparseX i="391" alpha="5077619.3022299791" sparseCutoff="1.0000000000000000"/>
      <sparseX i="392" alpha="-1818708.4390447780" sparseCutoff="1.0000000000000000"/>
      <sparseX i="393" alpha="3739305.9703250020" sparseCutoff="1.0000000000000000"/>
      <sparseX i="394" alpha="-3583293.2700146441" sparseCutoff="1.0000000000000000"/>
      <sparseX i="395" alpha="-368302.36941328738" sparseCutoff="1.0000000000000000"/>
      <sparseX i="396" alpha="-641778.75773934717" sparseCutoff="1.0000000000000000"/>
      <sparseX i="397" alpha="-964832.49883381359" sparseCutoff="1.0000000000000000"/>
      <sparseX i="398" alpha="-2521875.4834306203" sparseCutoff="1.0000000000000000"/>
      <sparseX i="399" alpha="2145856.0194632476" sparseCutoff="1.0000000000000000"/>
      <sparseX i="400" alpha="-192547.08207137996" sparseCutoff="1.0000000000000000"/>
      <sparseX i="401" alpha="-877581.02521432017" sparseCutoff="1.0000000000000000"/>
      <sparseX i="402" alpha="-2152819.9948959565" sparseCutoff="1.0000000000000000"/>
      <sparseX i="403" alpha="-359299.06792615482" sparseCutoff="1.0000000000000000"/>
      <sparseX i="404" alpha="3368762.2528871424" sparseCutoff="1.0000000000000000"/>
      <sparseX i="405" alpha="-3010344.6277748030" sparseCutoff="1.0000000000000000"/>
      <sparseX i="406" alpha="-2930133.8955605859" sparseCutoff="1.0000000000000000"/>
      <sparseX i="407" alpha="4166468.2293277094" sparseCutoff="1.0000000000000000"/>
      <sparseX i="408" alpha="2117478.8560086456" sparseCutoff="1.0000000000000000"/>
      <sparseX i="409" alpha="1878282.2059247517" sparseCutoff="1.0000000000000000"/>
      <sparseX i="410" alpha="-1203259.7288687427" sparseCutoff="1.0000000000000000"/>
      <sparseX i="411" alpha="709148.62394577998" sparseCutoff="1.0000000000000000"/>
      <sparseX i="412" alpha="-1025561.4739000455" sparseCutoff="1.0000000000000000"/>
      <sparseX i="413" alpha="223189.53958950861" sparseCutoff="1.0000000000000000"/>
      <sparseX i="414" alpha="-1278469.9524638571" sparseCutoff="1.0000000000000000"/>
      <sparseX i="415" alpha="4293097.3733137557" sparseCutoff="1.0000000000000000"/>
      <sparseX i="416" alpha="-664932.16541557678" sparseCutoff="1.0000000000000000"/>
      <sparseX i="417" alpha="4799940.0814208994" sparseCutoff="1.0000000000000000"/>
      <sparseX i="418" alpha="360355.81439873873" sparseCutoff="1.0000000000000000"/>
      <sparseX i="419" alpha="795151.04205586726" sparseCutoff="1.0000000000000000"/>
      <sparseX i="420" alpha="-926246.77279679803" sparseCutoff="1.0000000000000000"/>
      <sparseX i="421" alpha="4033501.1042620507" sparseCutoff="1.0000000000000000"/>
      <sparseX i="422" alpha="4584602.7536398740" sparseCutoff="1.0000000000000000"/>
      <sparseX i="423" alpha="2533475.5458789556" sparseCutoff="1.0000000000000000"/>
      <sparseX i="424" alpha="-2120290.5779856327" sparseCutoff="1.0000000000000000"/>
      <sparseX i="425" alpha="1777443.6581258008" sparseCutoff="1.0000000000000000"/>
      <sparseX i="426" alpha="-2290119.7329947334" sparseCutoff="1.0000000000000000"/>
      <sparseX i="427" alpha="-1820044.5490356919" sparseCutoff="1.0000000000000000"/>
      <sparseX i="428" alpha="-175554.04208419943" sparseCutoff="1.0000000000000000"/>
      <sparseX i="429" alpha="-698402.95305980579" sparseCutoff="1.0000000000000000"/>
      <sparseX i="430" alpha="210726.15702682006" sparseCutoff="1.0000000000000000"/>
      <sparseX i="431" alpha="-1588646.7822331649" sparseCutoff="1.0000000000000000"/>
      <sparseX i="432" alpha="-2659202.3250570782" sparseCutoff="1.0000000000000000"/>
      <sparseX i="433" alpha="2482977.5072029498" sparseCutoff="1.0000000000000000"/>
      <sparseX i="434" alpha="-152383.18749189476" sparseCutoff="1.0000000000000000"/>
      <sparseX i="435" alpha="-1055127.7379472069" sparseCutoff="1.0000000000000000"/>
      <sparseX i="436" alpha="-601858.52934657922" sparseCutoff="1.0000000000000000"/>
      <sparseX i="437" alpha="680997.49011175986" sparseCutoff="1.0000000000000000"/>
      <sparseX i="438" alpha="-1200977.8287246369" sparseCutoff="1.0000000000000000"/>
      <sparseX i="439" alpha="2932413.9337996659" sparseCutoff="1.0000000000000000"/>
      <sparseX i="440" alpha="1207819.0725863709" sparseCutoff="1.0000000000000000"/>
      <sparseX i="441" alpha="753057.64749423927" sparseCutoff="1.0000000000000000"/>
      <sparseX i="442" alpha="-326028.81043578574" sparseCutoff="1.0000000000000000"/>
      <sparseX i="443" alpha="4504748.7069476629" sparseCutoff="1.0000000000000000"/>
      <sparseX i="444" alpha="833276.46320935164" sparseCutoff="1.0000000000000000"/>
      <sparseX i="445" alpha="347202.86223573697" sparseCutoff="1.0000000000000000"/>
      <sparseX i="446" alpha="397971.28160878562" sparseCutoff="1.0000000000000000"/>
      <sparseX i="447" alpha="-2780411.3591448981" sparseCutoff="1.0000000000000000"/>
      <sparseX i="448" alpha="618247.45350911166" sparseCutoff="1.0000000000000000"/>
      <sparseX i="449" alpha="34871.846469179422" sparseCutoff="1.0000000000000000"/>
      <sparseX i="450" alpha="-715586.50380067155" sparseCutoff="1.0000000000000000"/>
      <sparseX i="451" alpha="-107412.62208466363" sparseCutoff="1.0000000000000000"/>
      <sparseX i="452" alpha="53399.001917005779" sparseCutoff="1.0000000000000000"/>
      <sparseX i="453" alpha="-460529.94653762283" sparseCutoff="1.0000000000000000"/>
      <sparseX i="454" alpha="266292.89611728204" sparseCutoff="1.0000000000000000"/>
      <sparseX i="455" alpha="-169445.73084138276" sparseCutoff="1.0000000000000000"/>
      <sparseX i="456" alpha="405866.96155226947" sparseCutoff="1.0000000000000000"/>
      <sparseX i="457" alpha="-143266.64255505797" sparseCutoff="1.0000000000000000"/>
      <sparseX i="458" alpha="-70916.351095219405" sparseCutoff="1.0000000000000000"/>
      <sparseX i="459" alpha="523489.33087248151" sparseCutoff="1.0000000000000000"/>
      <sparseX i="460" alpha="-510402.24402365560" sparseCutoff="1.0000000000000000"/>
      <sparseX i="461" alpha="-1939625.0421384035" sparseCutoff="1.0000000000000000"/>
      <sparseX i="462" alpha="-304124.43071310379" sparseCutoff="1.0000000000000000"/>
      <sparseX i="463" alpha="-11791.891849570880" sparseCutoff="1.0000000000000000"/>
      <sparseX i="464" alpha="-234899.98249762924" sparseCutoff="1.0000000000000000"/>
      <sparseX i="465" alpha="779194.60699290677" sparseCutoff="1.0000000000000000"/>
      <sparseX i="466" alpha="171752.43530308487" sparseCutoff="1.0000000000000000"/>
      <sparseX i="467" alpha="2094827.8851886080" sparseCutoff="1.0000000000000000"/>
      <sparseX i="468" alpha="-4628221.2506466266" sparseCutoff="1.0000000000000000"/>
      <sparseX i="469" alpha="823283.50718448916" sparseCutoff="1.0000000000000000"/>
      <sparseX i="470" alpha="-656941.35654832795" sparseCutoff="1.0000000000000000"/>
      <sparseX i="471" alpha="1094807.5288271422" sparseCutoff="1.0000000000000000"/>
      <sparseX i="472" alpha="-44140.777069294112" sparseCutoff="1.0000000000000000"/>
      <sparseX i="473" alpha="-1023142.8560120427" sparseCutoff="1.0000000000000000"/>
      <sparseX i="474" alpha="-1338244.2179210968" sparseCutoff="1.0000000000000000"/>
      <sparseX i="475" alpha="-1018031.0646938430" sparseCutoff="1.0000000000000000"/>
      <sparseX i="476" alpha="3098931.0462250994" sparseCutoff="1.0000000000000000"/>
      <sparseX i="477" alpha="1271425.3989197756" sparseCutoff="1.0000000000000000"/>
      <sparseX i="478" alpha="928365.89334769465" sparseCutoff="1.0000000000000000"/>
      <sparseX i="479" alpha="16470.292898656808" sparseCutoff="1.0000000000000000"/>
      <sparseX i="480" alpha="506143.40504671430" sparseCutoff="1.0000000000000000"/>
      <sparseX i="481" alpha="894174.01089821581" sparseCutoff="1.0000000000000000"/>
      <sparseX i="482" alpha="4007336.0930990442" sparseCutoff="1.0000000000000000"/>
      <sparseX i="483" alpha="331178.98569107743" sparseCutoff="1.0000000000000000"/>
      <sparseX i="484" alpha="-1861093.0461606891" sparseCutoff="1.0000000000000000"/>
      <sparseX i="485" alpha="-794532.72931826196" sparseCutoff="1.0000000000000000"/>
      <sparseX i="486" alpha="-331035.08416315337" sparseCutoff="1.0000000000000000"/>
      <sparseX i="487" alpha="96170.003245508589" sparseCutoff="1.0000000000000000"/>
      <sparseX i="488" alpha="-1204607.4166613615" sparseCutoff="1.0000000000000000"/>
      <sparseX i="489" alpha="-1338046.5213959694" sparseCutoff="1.0000000000000000"/>
      <sparseX i="490" alpha="-702591.05445201579" sparseCutoff="1.0000000000000000"/>
      <sparseX i="491" alpha="787365.86291999498" sparseCutoff="1.0000000000000000"/>
      <sparseX i="492" alpha="-355842.61897215364" sparseCutoff="1.0000000000000000"/>
      <sparseX i="493" alpha="1283190.5967652630" sparseCutoff="1.0000000000000000"/>
      <sparseX i="494" alpha="-1143763.9589076170" sparseCutoff="1.0000000000000000"/>
      <sparseX i="495" alpha="569828.66793804802" sparseCutoff="1.0000000000000000"/>
      <sparseX i="496" alpha="-63838.762011198909" sparseCutoff="1.0000000000000000"/>
      <sparseX i="497" alpha="3085714.0658513498" sparseCutoff="1.0000000000000000"/>
      <sparseX i="498" alpha="-785894.81422219903" sparseCutoff="1.0000000000000000"/>
      <sparseX i="499" alpha="-5274257.7649638643" sparseCutoff="1.0000000000000000"/>
      <sparseX i="500" alpha="410921.41813927528" sparseCutoff="1.0000000000000000"/>
      <sparseX i="501" alpha="386352.92553622118" sparseCutoff="1.0000000000000000"/>
      <sparseX i="502" alpha="391691.50384769618" sparseCutoff="1.0000000000000000"/>
      <sparseX i="503" alpha="-480441.06556748587" sparseCutoff="1.0000000000000000"/>
      <sparseX i="504" alpha="-991679.70602435840" sparseCutoff="1.0000000000000000"/>
      <sparseX i="505" alpha="2707102.6193157029" sparseCutoff="1.0000000000000000"/>
      <sparseX i="506" alpha="-575611.97700669628" sparseCutoff="1.0000000000000000"/>
      <sparseX i="507" alpha="747017.42758001888" sparseCutoff="1.0000000000000000"/>
      <sparseX i="508" alpha="2408841.7433597692" sparseCutoff="1.0000000000000000"/>
      <sparseX i="509" alpha="985869.43413475738" sparseCutoff="1.0000000000000000"/>
      <sparseX i="510" alpha="24909.438216450439" sparseCutoff="1.0000000000000000"/>
      <sparseX i="511" alpha="23162.891099388929" sparseCutoff="1.0000000000000000"/>
      <sparseX i="512" alpha="1193825.1970740091" sparseCutoff="1.0000000000000000"/>
      <sparseX i="513" alpha="340897.38656271808" sparseCutoff="1.0000000000000000"/>
      <sparseX i="514" alpha="-2224124.8848745152" sparseCutoff="1.0000000000000000"/>
      <sparseX i="515" alpha="773948.05236514797" sparseCutoff="1.0000000000000000"/>
      <sparseX i="516" alpha="63167.260980857995" sparseCutoff="1.0000000000000000"/>
      <sparseX i="517" alpha="-563967.39881138632" sparseCutoff="1.0000000000000000"/>
      <sparseX i="518" alpha="482664.44911621691" sparseCutoff="1.0000000000000000"/>
      <sparseX i="519" alpha="-5532090.6263145851" sparseCutoff="1.0000000000000000"/>
      <sparseX i="520" alpha="613373.03088227659" sparseCutoff="1.0000000000000000"/>
      <sparseX i="521" alpha="2454765.9246032578" sparseCutoff="1.0000000000000000"/>
      <sparseX i="522" alpha="-485609.67427427776" sparseCutoff="1.0000000000000000"/>
      <sparseX i="523" alpha="288312.38168949878" sparseCutoff="1.0000000000000000"/>
      <sparseX i="524" alpha="-167337.11055414053" sparseCutoff="1.0000000000000000"/>
      <sparseX i="525" alpha="472506.72422247328" sparseCutoff="1.0000000000000000"/>
      <sparseX i="526" alpha="-1739360.8565899699" sparseCutoff="1.0000000000000000"/>
      <sparseX i="527" alpha="-4851990.8320563212" sparseCutoff="1.0000000000000000"/>
      <sparseX i="528" alpha="464052.64575655473" sparseCutoff="1.0000000000000000"/>
      <sparseX i="529" alpha="-549388.03263757203" sparseCutoff="1.0000000000000000"/>
      <sparseX i="530" alpha="8117.0946037331641" sparseCutoff="1.0000000000000000"/>
      <sparseX i="531" alpha="1692705.7620955075" sparseCutoff="1.0000000000000000"/>
      <sparseX i="532" alpha="-272167.69758937054" sparseCutoff="1.0000000000000000"/>
      <sparseX i="533" alpha="-1631432.9062241660" sparseCutoff="1.0000000000000000"/>
      <sparseX i="534" alpha="-1128992.4136488452" sparseCutoff="1.0000000000000000"/>
      <sparseX i="535" alpha="668196.94799086812" sparseCutoff="1.0000000000000000"/>
      <sparseX i="536" alpha="-951224.95435041457" sparseCutoff="1.0000000000000000"/>
      <sparseX i="537" alpha="-868513.37438960071" sparseCutoff="1.0000000000000000"/>
      <sparseX i="538" alpha="53256.055202941854" sparseCutoff="1.0000000000000000"/>
      <sparseX i="539" alpha="-222679.72561107631" sparseCutoff="1.0000000000000000"/>
      <sparseX i="540" alpha="425009.82865976484" sparseCutoff="1.0000000000000000"/>
      <sparseX i="541" alpha="760630.35982369096" sparseCutoff="1.0000000000000000"/>
      <sparseX i="542" alpha="-287753.29763928324" sparseCutoff="1.0000000000000000"/>
      <sparseX i="543" alpha="62855.470221037001" sparseCutoff="1.0000000000000000"/>
      <sparseX i="544" alpha="-1099917.5101797010" sparseCutoff="1.0000000000000000"/>
      <sparseX i="545" alpha="-253655.98066175784" sparseCutoff="1.0000000000000000"/>
      <sparseX i="546" alpha="-346056.62343271641" sparseCutoff="1.0000000000000000"/>
      <sparseX i="547" alpha="805867.70902327355" sparseCutoff="1.0000000000000000"/>
      <sparseX i="548" alpha="-90451.922418146554" sparseCutoff="1.0000000000000000"/>
      <sparseX i="549" alpha="223140.60851578231" sparseCutoff="1.0000000000000000"/>
      <sparseX i="550" alpha="-1500898.6627536877" sparseCutoff="1.0000000000000000"/>
      <sparseX i="551" alpha="1271206.5967474130" sparseCutoff="1.0000000000000000"/>
      <sparseX i="552" alpha="98530.821529312350" sparseCutoff="1.0000000000000000"/>
      <sparseX i="553" alpha="1259664.9952253634" sparseCutoff="1.0000000000000000"/>
      <sparseX i="554" alpha="-2243753.9997576890" sparseCutoff="1.0000000000000000"/>
      <sparseX i="555" alpha="-609252.90537583036" sparseCutoff="1.0000000000000000"/>
      <sparseX i="556" alpha="-1473034.1816000440" sparseCutoff="1.0000000000000000"/>
      <sparseX i="557" alpha="645894.79168052855" sparseCutoff="1.0000000000000000"/>
      <sparseX i="558" alpha="1430282.1955922027" sparseCutoff="1.0000000000000000"/>
      <sparseX i="559" alpha="-84897.922051701913" sparseCutoff="1.0000000000000000"/>
      <sparseX i="560" alpha="2011787.1665795010" sparseCutoff="1.0000000000000000"/>
      <sparseX i="561" alpha="-2121731.3630569042" sparseCutoff="1.0000000000000000"/>
      <sparseX i="562" alpha="244761.71890697011" sparseCutoff="1.0000000000000000"/>
      <sparseX i="563" alpha="195735.33967328534" sparseCutoff="1.0000000000000000"/>
      <sparseX i="564" alpha="-748993.66167897906" sparseCutoff="1.0000000000000000"/>
      <sparseX i="565" alpha="-812337.59652848798" sparseCutoff="1.0000000000000000"/>
      <sparseX i="566" alpha="-3951823.6008418389" sparseCutoff="1.0000000000000000"/>
      <sparseX i="567" alpha="-769749.49169068073" sparseCutoff="1.0000000000000000"/>
      <sparseX i="568" alpha="104096.92601205883" sparseCutoff="1.0000000000000000"/>
      <sparseX i="569" alpha="1555976.7581821338" sparseCutoff="1.0000000000000000"/>
      <sparseX i="570" alpha="-1296481.7383037009" sparseCutoff="1.0000000000000000"/>
      <sparseX i="571" alpha="-687223.23595172830" sparseCutoff="1.0000000000000000"/>
      <sparseX i="572" alpha="-271459.43680772337" sparseCutoff="1.0000000000000000"/>
      <sparseX i="573" alpha="-98935.452392516658" sparseCutoff="1.0000000000000000"/>
      <sparseX i="574" alpha="-101828.04815860176" sparseCutoff="1.0000000000000000"/>
      <sparseX i="575" alpha="-1233994.7928494175" sparseCutoff="1.0000000000000000"/>
      <sparseX i="576" alpha="1173321.0864724861" sparseCutoff="1.0000000000000000"/>
      <sparseX i="577" alpha="-179739.30633300921" sparseCutoff="1.0000000000000000"/>
      <sparseX i="578" alpha="2051791.9085984468" sparseCutoff="1.0000000000000000"/>
      <sparseX i="579" alpha="1776502.7020560086" sparseCutoff="1.0000000000000000"/>
      <sparseX i="580" alpha="-147415.69816927231" sparseCutoff="1.0000000000000000"/>
      <sparseX i="581" alpha="3341693.9993746751" sparseCutoff="1.0000000000000000"/>
      <sparseX i="582" alpha="-4628891.5747584635" sparseCutoff="1.0000000000000000"/>
      <sparseX i="583" alpha="-45838.006113109885" sparseCutoff="1.0000000000000000"/>
      <sparseX i="584" alpha="1441916.9585053972" sparseCutoff="1.0000000000000000"/>
      <sparseX i="585" alpha="2195857.6486541242" sparseCutoff="1.0000000000000000"/>
      <sparseX i="586" alpha="1939811.2213671869" sparseCutoff="1.0000000000000000"/>
      <sparseX i="587" alpha="-2955290.7006346276" sparseCutoff="1.0000000000000000"/>
      <sparseX i="588" alpha="1129927.6512385062" sparseCutoff="1.0000000000000000"/>
      <sparseX i="589" alpha="367339.10196738580" sparseCutoff="1.0000000000000000"/>
      <sparseX i="590" alpha="-1230849.9708403538" sparseCutoff="1.0000000000000000"/>
      <sparseX i="591" alpha="-3590087.7502155146" sparseCutoff="1.0000000000000000"/>
      <sparseX i="592" alpha="671421.65312712116" sparseCutoff="1.0000000000000000"/>
      <sparseX i="593" alpha="-907318.08485608024" sparseCutoff="1.0000000000000000"/>
      <sparseX i="594" alpha="85725.451879514439" sparseCutoff="1.0000000000000000"/>
      <sparseX i="595" alpha="-515708.19503859599" sparseCutoff="1.0000000000000000"/>
      <sparseX i="596" alpha="-394988.81104547833" sparseCutoff="1.0000000000000000"/>
      <sparseX i="597" alpha="2981781.8305695173" sparseCutoff="1.0000000000000000"/>
      <sparseX i="598" alpha="-1515845.8616460348" sparseCutoff="1.0000000000000000"/>
      <sparseX i="599" alpha="1893834.1404455609" sparseCutoff="1.0000000000000000"/>
      <sparseX i="600" alpha="-2584755.8081352208" sparseCutoff="1.0000000000000000"/>
      <sparseX i="601" alpha="-2584574.7093873108" sparseCutoff="1.0000000000000000"/>
      <sparseX i="602" alpha="814043.61752324144" sparseCutoff="1.0000000000000000"/>
      <sparseX i="603" alpha="-1258148.7516729073" sparseCutoff="1.0000000000000000"/>
      <sparseX i="604" alpha="1674151.1135558316" sparseCutoff="1.0000000000000000"/>
      <sparseX i="605" alpha="-4528262.9544891147" sparseCutoff="1.0000000000000000"/>
      <sparseX i="606" alpha="-1916412.3800456484" sparseCutoff="1.0000000000000000"/>
      <sparseX i="607" alpha="1032423.4188108246" sparseCutoff="1.0000000000000000"/>
      <sparseX i="608" alpha="-634145.40177309141" sparseCutoff="1.0000000000000000"/>
      <sparseX i="609" alpha="-3771074.9745601062" sparseCutoff="1.0000000000000000"/>
      <sparseX i="610" alpha="-577351.31614510680" sparseCutoff="1.0000000000000000"/>
      <sparseX i="611" alpha="-351613.07957281568" sparseCutoff="1.0000000000000000"/>
      <sparseX i="612" alpha="-1394041.6821010888" sparseCutoff="1.0000000000000000"/>
      <sparseX i="613" alpha="551614.10449283710" sparseCutoff="1.0000000000000000"/>
      <sparseX i="614" alpha="961058.12471260631" sparseCutoff="1.0000000000000000"/>
      <sparseX i="615" alpha="-735251.09111428773" sparseCutoff="1.0000000000000000"/>
      <sparseX i="616" alpha="-550597.54137470038" sparseCutoff="1.0000000000000000"/>
      <sparseX i="617" alpha="-2899925.7693022708" sparseCutoff="1.0000000000000000"/>
      <sparseX i="618" alpha="1214524.2093675127" sparseCutoff="1.0000000000000000"/>
      <sparseX i="619" alpha="275279.57014795137" sparseCutoff="1.0000000000000000"/>
      <sparseX i="620" alpha="1055768.8496399650" sparseCutoff="1.0000000000000000"/>
      <sparseX i="621" alpha="-810534.61950084229" sparseCutoff="1.0000000000000000"/>
      <sparseX i="622" alpha="-94663.114922494700" sparseCutoff="1.0000000000000000"/>
      <sparseX i="623" alpha="244395.41273211906" sparseCutoff="1.0000000000000000"/>
      <sparseX i="624" alpha="-37030.044340485314" sparseCutoff="1.0000000000000000"/>
      <sparseX i="625" alpha="-2013740.5370760162" sparseCutoff="1.0000000000000000"/>
      <sparseX i="626" alpha="-190623.10827843143" sparseCutoff="1.0000000000000000"/>
      <sparseX i="627" alpha="-755194.87237599248" sparseCutoff="1.0000000000000000"/>
      <sparseX i="628" alpha="30883.748728818740" sparseCutoff="1.0000000000000000"/>
      <sparseX i="629" alpha="-685237.10149118386" sparseCutoff="1.0000000000000000"/>
      <sparseX i="630" alpha="-174188.37193169372" sparseCutoff="1.0000000000000000"/>
      <sparseX i="631" alpha="-497054.21719895006" sparseCutoff="1.0000000000000000"/>
      <sparseX i="632" alpha="-241603.11639730568" sparseCutoff="1.0000000000000000"/>
      <sparseX i="633" alpha="-4174396.5335961129" sparseCutoff="1.0000000000000000"/>
      <sparseX i="634" alpha="-560806.13789778808" sparseCutoff="1.0000000000000000"/>
      <sparseX i="635" alpha="3960691.7694805614" sparseCutoff="1.0000000000000000"/>
      <sparseX i="636" alpha="1239485.0816971562" sparseCutoff="1.0000000000000000"/>
      <sparseX i="637" alpha="1210129.6927148174" sparseCutoff="1.0000000000000000"/>
      <sparseX i="638" alpha="-944702.33790070540" sparseCutoff="1.0000000000000000"/>
      <sparseX i="639" alpha="930299.31162386958" sparseCutoff="1.0000000000000000"/>
      <sparseX i="640" alpha="-1973881.8807641258" sparseCutoff="1.0000000000000000"/>
      <sparseX i="641" alpha="-486110.14588164381" sparseCutoff="1.0000000000000000"/>
      <sparseX i="642" alpha="620183.56997358729" sparseCutoff="1.0000000000000000"/>
      <sparseX i="643" alpha="1005762.7718910923" sparseCutoff="1.0000000000000000"/>
      <sparseX i="644" alpha="339992.89477618487" sparseCutoff="1.0000000000000000"/>
      <sparseX i="645" alpha="376775.32411837834" sparseCutoff="1.0000000000000000"/>
      <sparseX i="646" alpha="-2614974.7280016905" sparseCutoff="1.0000000000000000"/>
      <sparseX i="647" alpha="-493563.90276485885" sparseCutoff="1.0000000000000000"/>
      <sparseX i="648" alpha="692039.39794112870" sparseCutoff="1.0000000000000000"/>
      <sparseX i="649" alpha="-246015.31344812387" sparseCutoff="1.0000000000000000"/>
      <sparseX i="650" alpha="-4205130.3946903720" sparseCutoff="1.0000000000000000"/>
      <sparseX i="651" alpha="-2155601.0704253968" sparseCutoff="1.0000000000000000"/>
      <sparseX i="652" alpha="303521.70678562555" sparseCutoff="1.0000000000000000"/>
      <sparseX i="653" alpha="-231095.75931150987" sparseCutoff="1.0000000000000000"/>
      <sparseX i="654" alpha="772909.36744934390" sparseCutoff="1.0000000000000000"/>
      <sparseX i="655" alpha="-471804.75830154825" sparseCutoff="1.0000000000000000"/>
      <sparseX i="656" alpha="1079186.6181216880" sparseCutoff="1.0000000000000000"/>
      <sparseX i="657" alpha="523417.05721480882" sparseCutoff="1.0000000000000000"/>
      <sparseX i="658" alpha="-908633.83029303909" sparseCutoff="1.0000000000000000"/>
      <sparseX i="659" alpha="-894638.22269301012" sparseCutoff="1.0000000000000000"/>
      <sparseX i="660" alpha="653295.08833038306" sparseCutoff="1.0000000000000000"/>
      <sparseX i="661" alpha="-7415.2790378509935" sparseCutoff="1.0000000000000000"/>
      <sparseX i="662" alpha="2513976.6338185593" sparseCutoff="1.0000000000000000"/>
      <sparseX i="663" alpha="699648.20970042446" sparseCutoff="1.0000000000000000"/>
      <sparseX i="664" alpha="629678.24131930748" sparseCutoff="1.0000000000000000"/>
      <sparseX i="665" alpha="283142.75195011380" sparseCutoff="1.0000000000000000"/>
      <sparseX i="666" alpha="1138479.2110687268" sparseCutoff="1.0000000000000000"/>
      <sparseX i="667" alpha="-688006.00273575564" sparseCutoff="1.0000000000000000"/>
      <sparseX i="668" alpha="-767158.44271637662" sparseCutoff="1.0000000000000000"/>
      <sparseX i="669" alpha="250604.75871880539" sparseCutoff="1.0000000000000000"/>
      <sparseX i="670" alpha="-1014714.4093464975" sparseCutoff="1.0000000000000000"/>
      <sparseX i="671" alpha="-1854356.2418779449" sparseCutoff="1.0000000000000000"/>
      <sparseX i="672" alpha="-259411.51702635517" sparseCutoff="1.0000000000000000"/>
      <sparseX i="673" alpha="-974395.23860363453" sparseCutoff="1.0000000000000000"/>
      <sparseX i="674" alpha="-1758929.9760782013" sparseCutoff="1.0000000000000000"/>
      <sparseX i="675" alpha="3129688.8511493551" sparseCutoff="1.0000000000000000"/>
      <sparseX i="676" alpha="-1420134.1397729483" sparseCutoff="1.0000000000000000"/>
      <sparseX i="677" alpha="1648658.0945610704" sparseCutoff="1.0000000000000000"/>
      <sparseX i="678" alpha="-28079.421987572976" sparseCutoff="1.0000000000000000"/>
      <sparseX i="679" alpha="758759.19360640855" sparseCutoff="1.0000000000000000"/>
      <sparseX i="680" alpha="1210309.0179755685" sparseCutoff="1.0000000000000000"/>
      <sparseX i="681" alpha="-1840023.3498889704" sparseCutoff="1.0000000000000000"/>
      <sparseX i="682" alpha="177798.39066958966" sparseCutoff="1.0000000000000000"/>
      <sparseX i="683" alpha="476273.25024470879" sparseCutoff="1.0000000000000000"/>
      <sparseX i="684" alpha="643663.25374642969" sparseCutoff="1.0000000000000000"/>
      <sparseX i="685" alpha="644681.82617008721" sparseCutoff="1.0000000000000000"/>
      <sparseX i="686" alpha="-205508.04444405349" sparseCutoff="1.0000000000000000"/>
      <sparseX i="687" alpha="-1152782.3527691439" sparseCutoff="1.0000000000000000"/>
      <sparseX i="688" alpha="-2307208.1097042542" sparseCutoff="1.0000000000000000"/>
      <sparseX i="689" alpha="1014072.7095310560" sparseCutoff="1.0000000000000000"/>
      <sparseX i="690" alpha="222629.89518027843" sparseCutoff="1.0000000000000000"/>
      <sparseX i="691" alpha="-207246.35501101433" sparseCutoff="1.0000000000000000"/>
      <sparseX i="692" alpha="-1688746.9276672942" sparseCutoff="1.0000000000000000"/>
      <sparseX i="693" alpha="-798184.16079001990" sparseCutoff="1.0000000000000000"/>
      <sparseX i="694" alpha="1116643.7605089878" sparseCutoff="1.0000000000000000"/>
      <sparseX i="695" alpha="163690.74893648684" sparseCutoff="1.0000000000000000"/>
      <sparseX i="696" alpha="466457.10545732337" sparseCutoff="1.0000000000000000"/>
      <sparseX i="697" alpha="1121705.4711508015" sparseCutoff="1.0000000000000000"/>
      <sparseX i="698" alpha="-617367.85153068078" sparseCutoff="1.0000000000000000"/>
      <sparseX i="699" alpha="305797.97023120720" sparseCutoff="1.0000000000000000"/>
      <sparseX i="700" alpha="2041283.8433542410" sparseCutoff="1.0000000000000000"/>
      <sparseX i="701" alpha="-492564.49606291769" sparseCutoff="1.0000000000000000"/>
      <sparseX i="702" alpha="837217.59758045641" sparseCutoff="1.0000000000000000"/>
      <sparseX i="703" alpha="309841.47613397869" sparseCutoff="1.0000000000000000"/>
      <sparseX i="704" alpha="1780859.4134997176" sparseCutoff="1.0000000000000000"/>
      <sparseX i="705" alpha="-2566484.0802361388" sparseCutoff="1.0000000000000000"/>
      <sparseX i="706" alpha="-1358888.2871274571" sparseCutoff="1.0000000000000000"/>
      <sparseX i="707" alpha="1286877.4388121357" sparseCutoff="1.0000000000000000"/>
      <sparseX i="708" alpha="-249229.09554046302" sparseCutoff="1.0000000000000000"/>
      <sparseX i="709" alpha="-91824.732852894085" sparseCutoff="1.0000000000000000"/>
      <sparseX i="710" alpha="-550390.92652698874" sparseCutoff="1.0000000000000000"/>
      <sparseX i="711" alpha="-986590.51385521982" sparseCutoff="1.0000000000000000"/>
      <sparseX i="712" alpha="183240.49257787349" sparseCutoff="1.0000000000000000"/>
      <sparseX i="713" alpha="-295100.25596221059" sparseCutoff="1.0000000000000000"/>
      <sparseX i="714" alpha="7118279.2920259228" sparseCutoff="1.0000000000000000"/>
      <sparseX i="715" alpha="664463.40805408638" sparseCutoff="1.0000000000000000"/>
      <sparseX i="716" alpha="1451170.6167461821" sparseCutoff="1.0000000000000000"/>
      <sparseX i="717" alpha="158751.38368028018" sparseCutoff="1.0000000000000000"/>
      <sparseX i="718" alpha="-32491.734950586779" sparseCutoff="1.0000000000000000"/>
      <sparseX i="719" alpha="-372001.32240415108" sparseCutoff="1.0000000000000000"/>
      <sparseX i="720" alpha="1488501.1697418822" sparseCutoff="1.0000000000000000"/>
      <sparseX i="721" alpha="-183792.80528875001" sparseCutoff="1.0000000000000000"/>
      <sparseX i="722" alpha="-424069.90304771799" sparseCutoff="1.0000000000000000"/>
      <sparseX i="723" alpha="419790.59929467598" sparseCutoff="1.0000000000000000"/>
      <sparseX i="724" alpha="64790.483692240894" sparseCutoff="1.0000000000000000"/>
      <sparseX i="725" alpha="1380842.0767948769" sparseCutoff="1.0000000000000000"/>
      <sparseX i="726" alpha="1497092.6527376501" sparseCutoff="1.0000000000000000"/>
      <sparseX i="727" alpha="-10210930.572844703" sparseCutoff="1.0000000000000000"/>
      <sparseX i="728" alpha="1493392.5775728705" sparseCutoff="1.0000000000000000"/>
      <sparseX i="729" alpha="1275759.8678983045" sparseCutoff="1.0000000000000000"/>
      <sparseX i="730" alpha="18654.461539721582" sparseCutoff="1.0000000000000000"/>
      <sparseX i="731" alpha="-2218583.6901633744" sparseCutoff="1.0000000000000000"/>
      <sparseX i="732" alpha="2209156.4681096510" sparseCutoff="1.0000000000000000"/>
      <sparseX i="733" alpha="1775253.6255370984" sparseCutoff="1.0000000000000000"/>
      <sparseX i="734" alpha="-2175179.8425586983" sparseCutoff="1.0000000000000000"/>
      <sparseX i="735" alpha="-1440768.7284402668" sparseCutoff="1.0000000000000000"/>
      <sparseX i="736" alpha="539368.19387047063" sparseCutoff="1.0000000000000000"/>
      <sparseX i="737" alpha="-784373.35129933257" sparseCutoff="1.0000000000000000"/>
      <sparseX i="738" alpha="1239769.1944774992" sparseCutoff="1.0000000000000000"/>
      <sparseX i="739" alpha="2259363.3345025014" sparseCutoff="1.0000000000000000"/>
      <sparseX i="740" alpha="-2321025.2105171792" sparseCutoff="1.0000000000000000"/>
      <sparseX i="741" alpha="-534804.43380288535" sparseCutoff="1.0000000000000000"/>
      <sparseX i="742" alpha="-1924137.8203253350" sparseCutoff="1.0000000000000000"/>
      <sparseX i="743" alpha="415069.31901258940" sparseCutoff="1.0000000000000000"/>
      <sparseX i="744" alpha="-350733.31441419729" sparseCutoff="1.0000000000000000"/>
      <sparseX i="745" alpha="-219606.23719156030" sparseCutoff="1.0000000000000000"/>
      <sparseX i="746" alpha="279819.05417340435" sparseCutoff="1.0000000000000000"/>
      <sparseX i="747" alpha="-750595.87221269438" sparseCutoff="1.0000000000000000"/>
      <sparseX i="748" alpha="611971.86212092265" sparseCutoff="1.0000000000000000"/>
      <sparseX i="749" alpha="-871783.88658645062" sparseCutoff="1.0000000000000000"/>
      <sparseX i="750" alpha="366872.96098638535" sparseCutoff="1.0000000000000000"/>
      <sparseX i="751" alpha="523441.28739747341" sparseCutoff="1.0000000000000000"/>
      <sparseX i="752" alpha="-86166.192821952965" sparseCutoff="1.0000000000000000"/>
      <sparseX i="753" alpha="-771936.34879747895" sparseCutoff="1.0000000000000000"/>
      <sparseX i="754" alpha="865286.89480274764" sparseCutoff="1.0000000000000000"/>
      <sparseX i="755" alpha="-4494.5931796699160" sparseCutoff="1.0000000000000000"/>
      <sparseX i="756" alpha="-1860910.9457392588" sparseCutoff="1.0000000000000000"/>
      <sparseX i="757" alpha="-1854613.1870395001" sparseCutoff="1.0000000000000000"/>
      <sparseX i="758" alpha="-3229677.3052345612" sparseCutoff="1.0000000000000000"/>
      <sparseX i="759" alpha="1136890.8591017197" sparseCutoff="1.0000000000000000"/>
      <sparseX i="760" alpha="286318.86432782398" sparseCutoff="1.0000000000000000"/>
      <sparseX i="761" alpha="1045775.4711396057" sparseCutoff="1.0000000000000000"/>
      <sparseX i="762" alpha="-1024412.9608170721" sparseCutoff="1.0000000000000000"/>
      <sparseX i="763" alpha="184201.84243059473" sparseCutoff="1.0000000000000000"/>
      <sparseX i="764" alpha="-395842.86037758150" sparseCutoff="1.0000000000000000"/>
      <sparseX i="765" alpha="-182192.80409966811" sparseCutoff="1.0000000000000000"/>
      <sparseX i="766" alpha="539199.25889860943" sparseCutoff="1.0000000000000000"/>
      <sparseX i="767" alpha="-291509.74655537220" sparseCutoff="1.0000000000000000"/>
      <sparseX i="768" alpha="209865.71236188253" sparseCutoff="1.0000000000000000"/>
      <sparseX i="769" alpha="856034.56493805232" sparseCutoff="1.0000000000000000"/>
      <sparseX i="770" alpha="652707.79682584899" sparseCutoff="1.0000000000000000"/>
      <sparseX i="771" alpha="378482.03362145420" sparseCutoff="1.0000000000000000"/>
      <sparseX i="772" alpha="534084.77142630203" sparseCutoff="1.0000000000000000"/>
      <sparseX i="773" alpha="-1855578.7227892715" sparseCutoff="1.0000000000000000"/>
      <sparseX i="774" alpha="-2489074.7462848718" sparseCutoff="1.0000000000000000"/>
      <sparseX i="775" alpha="168126.46861268353" sparseCutoff="1.0000000000000000"/>
      <sparseX i="776" alpha="-107216.20137036756" sparseCutoff="1.0000000000000000"/>
      <sparseX i="777" alpha="-683840.16170660185" sparseCutoff="1.0000000000000000"/>
      <sparseX i="778" alpha="3334292.6600337513" sparseCutoff="1.0000000000000000"/>
      <sparseX i="779" alpha="-177634.55706152582" sparseCutoff="1.0000000000000000"/>
      <sparseX i="780" alpha="1041382.2820785220" sparseCutoff="1.0000000000000000"/>
      <sparseX i="781" alpha="298412.50767588749" sparseCutoff="1.0000000000000000"/>
      <sparseX i="782" alpha="-137392.87435674301" sparseCutoff="1.0000000000000000"/>
      <sparseX i="783" alpha="861913.57932265883" sparseCutoff="1.0000000000000000"/>
      <sparseX i="784" alpha="-6339914.9154005703" sparseCutoff="1.0000000000000000"/>
      <sparseX i="785" alpha="-195149.88093753788" sparseCutoff="1.0000000000000000"/>
      <sparseX i="786" alpha="2770382.4024759089" sparseCutoff="1.0000000000000000"/>
      <sparseX i="787" alpha="-556092.53000257583" sparseCutoff="1.0000000000000000"/>
      <sparseX i="788" alpha="-647013.88772884605" sparseCutoff="1.0000000000000000"/>
      <sparseX i="789" alpha="193004.49718422259" sparseCutoff="1.0000000000000000"/>
      <sparseX i="790" alpha="3004821.8093476528" sparseCutoff="1.0000000000000000"/>
      <sparseX i="791" alpha="138947.49910698977" sparseCutoff="1.0000000000000000"/>
      <sparseX i="792" alpha="-833989.22273836634" sparseCutoff="1.0000000000000000"/>
      <sparseX i="793" alpha="-25641.775298253036" sparseCutoff="1.0000000000000000"/>
      <sparseX i="794" alpha="2212045.9128930829" sparseCutoff="1.0000000000000000"/>
      <sparseX i="795" alpha="1184980.5010347045" sparseCutoff="1.0000000000000000"/>
      <sparseX i="796" alpha="1301247.7854750683" sparseCutoff="1.0000000000000000"/>
      <sparseX i="797" alpha="1628572.0380079418" sparseCutoff="1.0000000000000000"/>
      <sparseX i="798" alpha="2264975.1009752429" sparseCutoff="1.0000000000000000"/>
      <sparseX i="799" alpha="117475.82722036245" sparseCutoff="1.0000000000000000"/>
      <sparseX i="800" alpha="-1501762.4879575153" sparseCutoff="1.0000000000000000"/>
      <sparseX i="801" alpha="-1463721.5455993719" sparseCutoff="1.0000000000000000"/>
      <sparseX i="802" alpha="-1266551.6012685322" sparseCutoff="1.0000000000000000"/>
      <sparseX i="803" alpha="-6430196.8158412231" sparseCutoff="1.0000000000000000"/>
      <sparseX i="804" alpha="1426895.6866495491" sparseCutoff="1.0000000000000000"/>
      <sparseX i="805" alpha="1289724.7609505432" sparseCutoff="1.0000000000000000"/>
      <sparseX i="806" alpha="-62954.400460141544" sparseCutoff="1.0000000000000000"/>
      <sparseX i="807" alpha="-156323.23373542778" sparseCutoff="1.0000000000000000"/>
      <sparseX i="808" alpha="-274250.88266631099" sparseCutoff="1.0000000000000000"/>
      <sparseX i="809" alpha="-3622464.9697750737" sparseCutoff="1.0000000000000000"/>
      <sparseX i="810" alpha="405263.78270151396" sparseCutoff="1.0000000000000000"/>
      <sparseX i="811" alpha="831104.22798769746" sparseCutoff="1.0000000000000000"/>
      <sparseX i="812" alpha="-3274856.1602719259" sparseCutoff="1.0000000000000000"/>
      <sparseX i="813" alpha="-65609.228264236284" sparseCutoff="1.0000000000000000"/>
      <sparseX i="814" alpha="-392296.61839094921" sparseCutoff="1.0000000000000000"/>
      <sparseX i="815" alpha="-613925.29540340824" sparseCutoff="1.0000000000000000"/>
      <sparseX i="816" alpha="-378005.08163285354" sparseCutoff="1.0000000000000000"/>
      <sparseX i="817" alpha="-488685.70052321377" sparseCutoff="1.0000000000000000"/>
      <sparseX i="818" alpha="-873295.35601434158" sparseCutoff="1.0000000000000000"/>
      <sparseX i="819" alpha="-240114.40869354943" sparseCutoff="1.0000000000000000"/>
      <sparseX i="820" alpha="709820.51198950235" sparseCutoff="1.0000000000000000"/>
      <sparseX i="821" alpha="-408940.44786133728" sparseCutoff="1.0000000000000000"/>
      <sparseX i="822" alpha="335711.67617611220" sparseCutoff="1.0000000000000000"/>
      <sparseX i="823" alpha="216665.71160242066" sparseCutoff="1.0000000000000000"/>
      <sparseX i="824" alpha="-2379498.5679312176" sparseCutoff="1.0000000000000000"/>
      <sparseX i="825" alpha="1470081.7850739441" sparseCutoff="1.0000000000000000"/>
      <sparseX i="826" alpha="-27127.509064695696" sparseCutoff="1.0000000000000000"/>
      <sparseX i="827" alpha="1525726.0896614292" sparseCutoff="1.0000000000000000"/>
      <sparseX i="828" alpha="195745.68535676447" sparseCutoff="1.0000000000000000"/>
      <sparseX i="829" alpha="457945.63366262149" sparseCutoff="1.0000000000000000"/>
      <sparseX i="830" alpha="43773.171564313525" sparseCutoff="1.0000000000000000"/>
      <sparseX i="831" alpha="699157.39405198710" sparseCutoff="1.0000000000000000"/>
      <sparseX i="832" alpha="557604.00927136547" sparseCutoff="1.0000000000000000"/>
      <sparseX i="833" alpha="1031837.9952520828" sparseCutoff="1.0000000000000000"/>
      <sparseX i="834" alpha="973036.68840981030" sparseCutoff="1.0000000000000000"/>
      <sparseX i="835" alpha="-923060.36298380117" sparseCutoff="1.0000000000000000"/>
      <sparseX i="836" alpha="-2858646.2752353908" sparseCutoff="1.0000000000000000"/>
      <sparseX i="837" alpha="-2311858.9255635971" sparseCutoff="1.0000000000000000"/>
      <sparseX i="838" alpha="-644027.59708918177" sparseCutoff="1.0000000000000000"/>
      <sparseX i="839" alpha="-1116218.3681269204" sparseCutoff="1.0000000000000000"/>
      <sparseX i="840" alpha="413205.64846208767" sparseCutoff="1.0000000000000000"/>
      <sparseX i="841" alpha="-202524.72060652150" sparseCutoff="1.0000000000000000"/>
      <sparseX i="842" alpha="101946.06271220311" sparseCutoff="1.0000000000000000"/>
      <sparseX i="843" alpha="1358233.3646946151" sparseCutoff="1.0000000000000000"/>
      <sparseX i="844" alpha="1570459.6197238788" sparseCutoff="1.0000000000000000"/>
      <sparseX i="845" alpha="2787188.9115971136" sparseCutoff="1.0000000000000000"/>
      <sparseX i="846" alpha="-1044101.4017539552" sparseCutoff="1.0000000000000000"/>
      <sparseX i="847" alpha="752012.10994832253" sparseCutoff="1.0000000000000000"/>
      <sparseX i="848" alpha="-810704.43762561749" sparseCutoff="1.0000000000000000"/>
      <sparseX i="849" alpha="1233343.7374914023" sparseCutoff="1.0000000000000000"/>
      <sparseX i="850" alpha="-2524404.5755093452" sparseCutoff="1.0000000000000000"/>
      <sparseX i="851" alpha="-2525156.9013917614" sparseCutoff="1.0000000000000000"/>
      <sparseX i="852" alpha="3969222.8063490870" sparseCutoff="1.0000000000000000"/>
      <sparseX i="853" alpha="-5402848.4355437271" sparseCutoff="1.0000000000000000"/>
      <sparseX i="854" alpha="387946.05893117428" sparseCutoff="1.0000000000000000"/>
      <sparseX i="855" alpha="3101207.1509551937" sparseCutoff="1.0000000000000000"/>
      <sparseX i="856" alpha="489826.61704915087" sparseCutoff="1.0000000000000000"/>
      <sparseX i="857" alpha="-2628855.2480917121" sparseCutoff="1.0000000000000000"/>
      <sparseX i="858" alpha="-729043.79771349137" sparseCutoff="1.0000000000000000"/>
      <sparseX i="859" alpha="94864.525709703288" sparseCutoff="1.0000000000000000"/>
      <sparseX i="860" alpha="-1596168.6657868372" sparseCutoff="1.0000000000000000"/>
      <sparseX i="861" alpha="-1113857.1665259094" sparseCutoff="1.0000000000000000"/>
      <sparseX i="862" alpha="1967348.5480197691" sparseCutoff="1.0000000000000000"/>
      <sparseX i="863" alpha="-839134.79711767030" sparseCutoff="1.0000000000000000"/>
      <sparseX i="864" alpha="-984002.61767774494" sparseCutoff="1.0000000000000000"/>
      <sparseX i="865" alpha="576.47052735828788" sparseCutoff="1.0000000000000000"/>
      <sparseX i="866" alpha="1916882.5951485529" sparseCutoff="1.0000000000000000"/>
      <sparseX i="867" alpha="-1615447.3472832572" sparseCutoff="1.0000000000000000"/>
      <sparseX i="868" alpha="966703.35396128113" sparseCutoff="1.0000000000000000"/>
      <sparseX i="869" alpha="367285.22971280821" sparseCutoff="1.0000000000000000"/>
      <sparseX i="870" alpha="861432.74831807939" sparseCutoff="1.0000000000000000"/>
      <sparseX i="871" alpha="-2063593.1239110450" sparseCutoff="1.0000000000000000"/>
      <sparseX i="872" alpha="-3175025.5623108083" sparseCutoff="1.0000000000000000"/>
      <sparseX i="873" alpha="-1909353.0660171460" sparseCutoff="1.0000000000000000"/>
      <sparseX i="874" alpha="1830426.9160875860" sparseCutoff="1.0000000000000000"/>
      <sparseX i="875" alpha="1332956.9203385105" sparseCutoff="1.0000000000000000"/>
      <sparseX i="876" alpha="852016.01460133109" sparseCutoff="1.0000000000000000"/>
      <sparseX i="877" alpha="-311659.86267048883" sparseCutoff="1.0000000000000000"/>
      <sparseX i="878" alpha="397747.40445654374" sparseCutoff="1.0000000000000000"/>
      <sparseX i="879" alpha="1022425.4371230162" sparseCutoff="1.0000000000000000"/>
      <sparseX i="880" alpha="389413.26246835693" sparseCutoff="1.0000000000000000"/>
      <sparseX i="881" alpha="3025378.7725513689" sparseCutoff="1.0000000000000000"/>
      <sparseX i="882" alpha="-753855.30803071370" sparseCutoff="1.0000000000000000"/>
      <sparseX i="883" alpha="850969.17935802182" sparseCutoff="1.0000000000000000"/>
      <sparseX i="884" alpha="593065.12411439361" sparseCutoff="1.0000000000000000"/>
      <sparseX i="885" alpha="-653484.77140235319" sparseCutoff="1.0000000000000000"/>
      <sparseX i="886" alpha="495595.52576797770" sparseCutoff="1.0000000000000000"/>
      <sparseX i="887" alpha="-717272.20528661204" sparseCutoff="1.0000000000000000"/>
      <sparseX i="888" alpha="2416983.5971153551" sparseCutoff="1.0000000000000000"/>
      <sparseX i="889" alpha="598271.92971646832" sparseCutoff="1.0000000000000000"/>
      <sparseX i="890" alpha="12120.043545107203" sparseCutoff="1.0000000000000000"/>
      <sparseX i="891" alpha="2753.0112658071375" sparseCutoff="1.0000000000000000"/>
      <sparseX i="892" alpha="922048.57377177128" sparseCutoff="1.0000000000000000"/>
      <sparseX i="893" alpha="501708.06624606979" sparseCutoff="1.0000000000000000"/>
      <sparseX i="894" alpha="-1502022.1372407405" sparseCutoff="1.0000000000000000"/>
      <sparseX i="895" alpha="-637130.87035463250" sparseCutoff="1.0000000000000000"/>
      <sparseX i="896" alpha="424986.95170127915" sparseCutoff="1.0000000000000000"/>
      <sparseX i="897" alpha="489774.13862194819" sparseCutoff="1.0000000000000000"/>
      <sparseX i="898" alpha="-1854437.9252855442" sparseCutoff="1.0000000000000000"/>
      <sparseX i="899" alpha="2616930.6562743206" sparseCutoff="1.0000000000000000"/>
      <sparseX i="900" alpha="4320137.9770978810" sparseCutoff="1.0000000000000000"/>
      <sparseX i="901" alpha="2152547.6408973541" sparseCutoff="1.0000000000000000"/>
      <sparseX i="902" alpha="-582674.48069366149" sparseCutoff="1.0000000000000000"/>
      <sparseX i="903" alpha="944561.55334925023" sparseCutoff="1.0000000000000000"/>
      <sparseX i="904" alpha="1361150.1647402304" sparseCutoff="1.0000000000000000"/>
      <sparseX i="905" alpha="286321.15754451294" sparseCutoff="1.0000000000000000"/>
      <sparseX i="906" alpha="1026182.8522391410" sparseCutoff="1.0000000000000000"/>
      <sparseX i="907" alpha="-384926.72371915006" sparseCutoff="1.0000000000000000"/>
      <sparseX i="908" alpha="-127602.68039007633" sparseCutoff="1.0000000000000000"/>
      <sparseX i="909" alpha="-3498148.0778342769" sparseCutoff="1.0000000000000000"/>
      <sparseX i="910" alpha="626601.08170342189" sparseCutoff="1.0000000000000000"/>
      <sparseX i="911" alpha="-406250.78571833373" sparseCutoff="1.0000000000000000"/>
      <sparseX i="912" alpha="-205502.39308437720" sparseCutoff="1.0000000000000000"/>
      <sparseX i="913" alpha="262300.36528134265" sparseCutoff="1.0000000000000000"/>
      <sparseX i="914" alpha="2153007.6141443434" sparseCutoff="1.0000000000000000"/>
      <sparseX i="915" alpha="-382505.03153406020" sparseCutoff="1.0000000000000000"/>
      <sparseX i="916" alpha="-2750476.6371578961" sparseCutoff="1.0000000000000000"/>
      <sparseX i="917" alpha="2455812.1073795487" sparseCutoff="1.0000000000000000"/>
      <sparseX i="918" alpha="231964.45869970435" sparseCutoff="1.0000000000000000"/>
      <sparseX i="919" alpha="63335.459480920050" sparseCutoff="1.0000000000000000"/>
      <sparseX i="920" alpha="-516835.45296408527" sparseCutoff="1.0000000000000000"/>
      <sparseX i="921" alpha="39779.578083822882" sparseCutoff="1.0000000000000000"/>
      <sparseX i="922" alpha="1087736.1578075588" sparseCutoff="1.0000000000000000"/>
      <sparseX i="923" alpha="-4620588.3796021566" sparseCutoff="1.0000000000000000"/>
      <sparseX i="924" alpha="608344.03021228348" sparseCutoff="1.0000000000000000"/>
      <sparseX i="925" alpha="-659046.10561550048" sparseCutoff="1.0000000000000000"/>
      <sparseX i="926" alpha="-812482.71326298057" sparseCutoff="1.0000000000000000"/>
      <sparseX i="927" alpha="-592306.08587038040" sparseCutoff="1.0000000000000000"/>
      <sparseX i="928" alpha="598800.82756297279" sparseCutoff="1.0000000000000000"/>
      <sparseX i="929" alpha="2970665.6360402573" sparseCutoff="1.0000000000000000"/>
      <sparseX i="930" alpha="-1186174.6478144170" sparseCutoff="1.0000000000000000"/>
      <sparseX i="931" alpha="-1206931.9175387830" sparseCutoff="1.0000000000000000"/>
      <sparseX i="932" alpha="866757.72362133896" sparseCutoff="1.0000000000000000"/>
      <sparseX i="933" alpha="1179674.4299437322" sparseCutoff="1.0000000000000000"/>
      <sparseX i="934" alpha="-2110394.1587887704" sparseCutoff="1.0000000000000000"/>
      <sparseX i="935" alpha="-2872504.8174317572" sparseCutoff="1.0000000000000000"/>
      <sparseX i="936" alpha="-2342069.1693784562" sparseCutoff="1.0000000000000000"/>
      <sparseX i="937" alpha="-2535482.8433199944" sparseCutoff="1.0000000000000000"/>
      <sparseX i="938" alpha="1018302.7299143673" sparseCutoff="1.0000000000000000"/>
      <sparseX i="939" alpha="1591474.3351634296" sparseCutoff="1.0000000000000000"/>
      <sparseX i="940" alpha="-4992314.8274935381" sparseCutoff="1.0000000000000000"/>
      <sparseX i="941" alpha="-1874280.7460972087" sparseCutoff="1.0000000000000000"/>
      <sparseX i="942" alpha="-310891.05646732688" sparseCutoff="1.0000000000000000"/>
      <sparseX i="943" alpha="1852599.5389736814" sparseCutoff="1.0000000000000000"/>
      <sparseX i="944" alpha="413933.33604289789" sparseCutoff="1.0000000000000000"/>
      <sparseX i="945" alpha="4415271.1110285539" sparseCutoff="1.0000000000000000"/>
      <sparseX i="946" alpha="-834687.65606296004" sparseCutoff="1.0000000000000000"/>
      <sparseX i="947" alpha="1322272.4298259383" sparseCutoff="1.0000000000000000"/>
      <sparseX i="948" alpha="1902378.1161545431" sparseCutoff="1.0000000000000000"/>
      <sparseX i="949" alpha="1001623.3257362293" sparseCutoff="1.0000000000000000"/>
      <sparseX i="950" alpha="6166652.2749045538" sparseCutoff="1.0000000000000000"/>
      <sparseX i="951" alpha="-1923483.3741197686" sparseCutoff="1.0000000000000000"/>
      <sparseX i="952" alpha="-717918.26741174515" sparseCutoff="1.0000000000000000"/>
      <sparseX i="953" alpha="932570.94952441927" sparseCutoff="1.0000000000000000"/>
      <sparseX i="954" alpha="2664404.0674541635" sparseCutoff="1.0000000000000000"/>
      <sparseX i="955" alpha="473464.95570708340" sparseCutoff="1.0000000000000000"/>
      <sparseX i="956" alpha="1477512.2951822418" sparseCutoff="1.0000000000000000"/>
      <sparseX i="957" alpha="4123174.7452784581" sparseCutoff="1.0000000000000000"/>
      <sparseX i="958" alpha="2767409.9130228967" sparseCutoff="1.0000000000000000"/>
      <sparseX i="959" alpha="2055755.3128471198" sparseCutoff="1.0000000000000000"/>
      <sparseX i="960" alpha="559601.58417839650" sparseCutoff="1.0000000000000000"/>
      <sparseX i="961" alpha="-2202053.6395259835" sparseCutoff="1.0000000000000000"/>
      <sparseX i="962" alpha="-520739.69754793192" sparseCutoff="1.0000000000000000"/>
      <sparseX i="963" alpha="-765653.85252362362" sparseCutoff="1.0000000000000000"/>
      <sparseX i="964" alpha="-411483.28682387376" sparseCutoff="1.0000000000000000"/>
      <sparseX i="965" alpha="229445.23405083921" sparseCutoff="1.0000000000000000"/>
      <sparseX i="966" alpha="-207386.21741231048" sparseCutoff="1.0000000000000000"/>
      <sparseX i="967" alpha="-88175.094053705441" sparseCutoff="1.0000000000000000"/>
      <sparseX i="968" alpha="-26128.755379095783" sparseCutoff="1.0000000000000000"/>
      <sparseX i="969" alpha="2382420.4546705415" sparseCutoff="1.0000000000000000"/>
      <sparseX i="970" alpha="30918.787302802124" sparseCutoff="1.0000000000000000"/>
      <sparseX i="971" alpha="5114612.9185389737" sparseCutoff="1.0000000000000000"/>
      <sparseX i="972" alpha="-1135181.7380336802" sparseCutoff="1.0000000000000000"/>
      <sparseX i="973" alpha="-3537983.1675824351" sparseCutoff="1.0000000000000000"/>
      <sparseX i="974" alpha="-1795447.3849671970" sparseCutoff="1.0000000000000000"/>
      <sparseX i="975" alpha="-254762.21763144826" sparseCutoff="1.0000000000000000"/>
      <sparseX i="976" alpha="606044.95066465833" sparseCutoff="1.0000000000000000"/>
      <sparseX i="977" alpha="-429245.94486190280" sparseCutoff="1.0000000000000000"/>
      <sparseX i="978" alpha="-147120.68803815683" sparseCutoff="1.0000000000000000"/>
      <sparseX i="979" alpha="1154157.4496243729" sparseCutoff="1.0000000000000000"/>
      <sparseX i="980" alpha="-1849788.5575460787" sparseCutoff="1.0000000000000000"/>
      <sparseX i="981" alpha="-110352.94526540721" sparseCutoff="1.0000000000000000"/>
      <sparseX i="982" alpha="1127926.2283161550" sparseCutoff="1.0000000000000000"/>
      <sparseX i="983" alpha="739530.51742521138" sparseCutoff="1.0000000000000000"/>
      <sparseX i="984" alpha="2626660.1450324529" sparseCutoff="1.0000000000000000"/>
      <sparseX i="985" alpha="-556286.39960533346" sparseCutoff="1.0000000000000000"/>
      <sparseX i="986" alpha="648830.38109763444" sparseCutoff="1.0000000000000000"/>
      <sparseX i="987" alpha="114068.67961039113" sparseCutoff="1.0000000000000000"/>
      <sparseX i="988" alpha="-436556.98015277908" sparseCutoff="1.0000000000000000"/>
      <sparseX i="989" alpha="3796354.6036788193" sparseCutoff="1.0000000000000000"/>
      <sparseX i="990" alpha="513595.50858253869" sparseCutoff="1.0000000000000000"/>
      <sparseX i="991" alpha="-1106443.5954631714" sparseCutoff="1.0000000000000000"/>
      <sparseX i="992" alpha="118854.14542483812" sparseCutoff="1.0000000000000000"/>
      <sparseX i="993" alpha="-368601.28720266098" sparseCutoff="1.0000000000000000"/>
      <sparseX i="994" alpha="-91209.599190733526" sparseCutoff="1.0000000000000000"/>
      <sparseX i="995" alpha="-3172254.7724641715" sparseCutoff="1.0000000000000000"/>
      <sparseX i="996" alpha="957230.17402362684" sparseCutoff="1.0000000000000000"/>
      <sparseX i="997" alpha="1039875.9013473730" sparseCutoff="1.0000000000000000"/>
      <sparseX i="998" alpha="1270163.9083197995" sparseCutoff="1.0000000000000000"/>
      <sparseX i="999" alpha="317192.12417672848" sparseCutoff="1.0000000000000000"/>
      <sparseX i="1000" alpha="-6124353.8668813873" sparseCutoff="1.0000000000000000"/>
      <sparseX i="1001" alpha="452847.67366878607" sparseCutoff="1.0000000000000000"/>
      <sparseX i="1002" alpha="-80749.724399062456" sparseCutoff="1.0000000000000000"/>
      <sparseX i="1003" alpha="73687.969342880286" sparseCutoff="1.0000000000000000"/>
      <sparseX i="1004" alpha="1552705.4995812634" sparseCutoff="1.0000000000000000"/>
      <sparseX i="1005" alpha="153427.02340137211" sparseCutoff="1.0000000000000000"/>
      <sparseX i="1006" alpha="775767.95997508068" sparseCutoff="1.0000000000000000"/>
      <sparseX i="1007" alpha="296624.00637648092" sparseCutoff="1.0000000000000000"/>
      <sparseX i="1008" alpha="-2531972.2000320652" sparseCutoff="1.0000000000000000"/>
      <sparseX i="1009" alpha="-1902251.2061698635" sparseCutoff="1.0000000000000000"/>
      <sparseX i="1010" alpha="1810129.8138575586" sparseCutoff="1.0000000000000000"/>
      <sparseX i="1011" alpha="-1549453.7397457701" sparseCutoff="1.0000000000000000"/>
      <sparseX i="1012" alpha="-833598.23554924561" sparseCutoff="1.0000000000000000"/>
      <sparseX i="1013" alpha="106107.70053705729" sparseCutoff="1.0000000000000000"/>
      <sparseX i="1014" alpha="470085.15334689664" sparseCutoff="1.0000000000000000"/>
      <sparseX i="1015" alpha="-1643768.8383237228" sparseCutoff="1.0000000000000000"/>
      <sparseX i="1016" alpha="118347.00390272310" sparseCutoff="1.0000000000000000"/>
      <sparseX i="1017" alpha="588785.35296369495" sparseCutoff="1.0000000000000000"/>
      <sparseX i="1018" alpha="72674.065244437559" sparseCutoff="1.0000000000000000"/>
      <sparseX i="1019" alpha="-456769.65167432313" sparseCutoff="1.0000000000000000"/>
      <sparseX i="1020" alpha="-1475694.8045815839" sparseCutoff="1.0000000000000000"/>
      <sparseX i="1021" alpha="61308.044223375276" sparseCutoff="1.0000000000000000"/>
      <sparseX i="1022" alpha="1185499.1730359434" sparseCutoff="1.0000000000000000"/>
      <sparseX i="1023" alpha="-1194483.4543897025" sparseCutoff="1.0000000000000000"/>
      <sparseX i="1024" alpha="-30489.674051808444" sparseCutoff="1.0000000000000000"/>
      <sparseX i="1025" alpha="150439.68849664601" sparseCutoff="1.0000000000000000"/>
      <sparseX i="1026" alpha="217790.84898897610" sparseCutoff="1.0000000000000000"/>
      <sparseX i="1027" alpha="326208.04731220490" sparseCutoff="1.0000000000000000"/>
      <sparseX i="1028" alpha="-839974.03310529410" sparseCutoff="1.0000000000000000"/>
      <sparseX i="1029" alpha="-1599865.3998580044" sparseCutoff="1.0000000000000000"/>
      <sparseX i="1030" alpha="15347.666489593608" sparseCutoff="1.0000000000000000"/>
      <sparseX i="1031" alpha="219843.43339736378" sparseCutoff="1.0000000000000000"/>
      <sparseX i="1032" alpha="-1135753.8728671565" sparseCutoff="1.0000000000000000"/>
      <sparseX i="1033" alpha="-160799.07024673725" sparseCutoff="1.0000000000000000"/>
      <sparseX i="1034" alpha="-409638.11801984953" sparseCutoff="1.0000000000000000"/>
      <sparseX i="1035" alpha="-1058784.7019411589" sparseCutoff="1.0000000000000000"/>
      <sparseX i="1036" alpha="381316.37031454872" sparseCutoff="1.0000000000000000"/>
      <sparseX i="1037" alpha="569430.46956295997" sparseCutoff="1.0000000000000000"/>
      <sparseX i="1038" alpha="675335.25748659496" sparseCutoff="1.0000000000000000"/>
      <sparseX i="1039" alpha="1597639.3434038125" sparseCutoff="1.0000000000000000"/>
      <sparseX i="1040" alpha="-606208.23664093704" sparseCutoff="1.0000000000000000"/>
      <sparseX i="1041" alpha="261655.64424586284" sparseCutoff="1.0000000000000000"/>
      <sparseX i="1042" alpha="-1049763.4286852332" sparseCutoff="1.0000000000000000"/>
